<?xml version="1.0"?>
<MethodSetup Method="MLP::MLPBNN">
  <GeneralInfo>
    <Info name="TMVA Release" value="4.2.1 [262657]"/>
    <Info name="ROOT Release" value="6.22/06 [398854]"/>
    <Info name="Creator" value="apetkovic"/>
    <Info name="Date" value="Sat Jan  9 15:31:11 2021"/>
    <Info name="Host" value="Linux buildvm-x86-05.iad2.fedoraproject.org 5.7.11-200.fc32.x86_64 #1 SMP Wed Jul 29 17:15:52 UTC 2020 x86_64 x86_64 x86_64 GNU/Linux"/>
    <Info name="Dir" value="/home/apetkovic/Vjezbe/Vjezbe_12"/>
    <Info name="Training events" value="2000"/>
    <Info name="TrainingTime" value="4.71125282e+02"/>
    <Info name="AnalysisType" value="Classification"/>
  </GeneralInfo>
  <Options>
    <Option name="NCycles" modified="Yes">600</Option>
    <Option name="HiddenLayers" modified="Yes">N+5</Option>
    <Option name="NeuronType" modified="Yes">tanh</Option>
    <Option name="RandomSeed" modified="No">1</Option>
    <Option name="EstimatorType" modified="No">CE</Option>
    <Option name="NeuronInputType" modified="No">sum</Option>
    <Option name="V" modified="Yes">False</Option>
    <Option name="VerbosityLevel" modified="No">Default</Option>
    <Option name="VarTransform" modified="Yes">N</Option>
    <Option name="H" modified="Yes">True</Option>
    <Option name="CreateMVAPdfs" modified="No">False</Option>
    <Option name="IgnoreNegWeightsInTraining" modified="No">False</Option>
    <Option name="TrainingMethod" modified="Yes">BFGS</Option>
    <Option name="LearningRate" modified="No">2.000000e-02</Option>
    <Option name="DecayRate" modified="No">1.000000e-02</Option>
    <Option name="TestRate" modified="Yes">5</Option>
    <Option name="EpochMonitoring" modified="No">False</Option>
    <Option name="Sampling" modified="No">1.000000e+00</Option>
    <Option name="SamplingEpoch" modified="No">1.000000e+00</Option>
    <Option name="SamplingImportance" modified="No">1.000000e+00</Option>
    <Option name="SamplingTraining" modified="No">True</Option>
    <Option name="SamplingTesting" modified="No">False</Option>
    <Option name="ResetStep" modified="No">50</Option>
    <Option name="Tau" modified="No">3.000000e+00</Option>
    <Option name="BPMode" modified="No">sequential</Option>
    <Option name="BatchSize" modified="No">-1</Option>
    <Option name="ConvergenceImprove" modified="No">1.000000e-30</Option>
    <Option name="ConvergenceTests" modified="No">-1</Option>
    <Option name="UseRegulator" modified="Yes">True</Option>
    <Option name="UpdateLimit" modified="No">10000</Option>
    <Option name="CalculateErrors" modified="No">False</Option>
    <Option name="WeightRange" modified="No">1.000000e+00</Option>
  </Options>
  <Variables NVar="4">
    <Variable VarIndex="0" Expression="ele_pt" Label="ele_pt" Title="ele_pt" Unit="" Internal="ele_pt" Type="F" Min="5.00599241e+00" Max="3.06198883e+02"/>
    <Variable VarIndex="1" Expression="ele_ep" Label="ele_ep" Title="ele_ep" Unit="" Internal="ele_ep" Type="F" Min="4.18868935e-04" Max="2.00000000e+01"/>
    <Variable VarIndex="2" Expression="ele_fbrem" Label="ele_fbrem" Title="ele_fbrem" Unit="" Internal="ele_fbrem" Type="F" Min="-1.00000000e+00" Max="9.91997242e-01"/>
    <Variable VarIndex="3" Expression="ele_eelepout" Label="ele_eelepout" Title="ele_eelepout" Unit="" Internal="ele_eelepout" Type="F" Min="2.26789676e-02" Max="2.00000000e+01"/>
  </Variables>
  <Spectators NSpec="0"/>
  <Classes NClass="2">
    <Class Name="Signal" Index="0"/>
    <Class Name="Background" Index="1"/>
  </Classes>
  <Transformations NTransformations="1">
    <Transform Name="Normalize">
      <Selection>
        <Input NInputs="4">
          <Input Type="Variable" Label="ele_pt" Expression="ele_pt"/>
          <Input Type="Variable" Label="ele_ep" Expression="ele_ep"/>
          <Input Type="Variable" Label="ele_fbrem" Expression="ele_fbrem"/>
          <Input Type="Variable" Label="ele_eelepout" Expression="ele_eelepout"/>
        </Input>
        <Output NOutputs="4">
          <Output Type="Variable" Label="ele_pt" Expression="ele_pt"/>
          <Output Type="Variable" Label="ele_ep" Expression="ele_ep"/>
          <Output Type="Variable" Label="ele_fbrem" Expression="ele_fbrem"/>
          <Output Type="Variable" Label="ele_eelepout" Expression="ele_eelepout"/>
        </Output>
      </Selection>
      <Class ClassIndex="0">
        <Ranges>
          <Range Index="0" Min="5.9320044517517090e+00" Max="2.9407147216796875e+02"/>
          <Range Index="1" Min="4.1886893450282514e-04" Max="2.0000000000000000e+01"/>
          <Range Index="2" Min="-1.0000000000000000e+00" Max="9.8882609605789185e-01"/>
          <Range Index="3" Min="6.1274066567420959e-02" Max="2.0000000000000000e+01"/>
        </Ranges>
      </Class>
      <Class ClassIndex="1">
        <Ranges>
          <Range Index="0" Min="5.0059924125671387e+00" Max="3.0619888305664062e+02"/>
          <Range Index="1" Min="3.8343772292137146e-02" Max="2.0000000000000000e+01"/>
          <Range Index="2" Min="-1.0000000000000000e+00" Max="9.9199724197387695e-01"/>
          <Range Index="3" Min="2.2678967565298080e-02" Max="2.0000000000000000e+01"/>
        </Ranges>
      </Class>
      <Class ClassIndex="2">
        <Ranges>
          <Range Index="0" Min="5.0059924125671387e+00" Max="3.0619888305664062e+02"/>
          <Range Index="1" Min="4.1886893450282514e-04" Max="2.0000000000000000e+01"/>
          <Range Index="2" Min="-1.0000000000000000e+00" Max="9.9199724197387695e-01"/>
          <Range Index="3" Min="2.2678967565298080e-02" Max="2.0000000000000000e+01"/>
        </Ranges>
      </Class>
    </Transform>
  </Transformations>
  <MVAPdfs/>
  <Weights>
    <Layout NLayers="3">
      <Layer Index="0" NNeurons="5">
        <Neuron NSynapses="9">
          -5.2031083664522511e+00 1.5984527092661585e-01 -6.9562316758561571e-01 1.7214309265187002e+00 -4.1529630172918847e-01 -2.8569817470948877e-01 -2.6106160411760064e+00 4.2818894112372113e-01 -2.0676128441868253e+00 
        </Neuron>
        <Neuron NSynapses="9">
          2.7017034075074925e-01 7.4325404005511686e-01 -1.0136040018033927e+00 -2.3368838558645222e+00 6.3149054576453656e-01 3.5682411460813057e-01 -4.2165064501358351e-01 4.7249103476070153e-01 3.2064131559376694e+00 
        </Neuron>
        <Neuron NSynapses="9">
          -1.9946025552807298e-01 3.8734366811380999e-01 -3.8509962203920103e+00 1.1239941166455691e+00 3.7325558321259384e+00 2.6178062850615618e+00 3.0772827338613333e+00 -2.9676004621844476e+00 -1.8920466724199094e+00 
        </Neuron>
        <Neuron NSynapses="9">
          3.1467819437976075e-01 -1.1984798335498270e+00 -1.0827198568591594e+00 -4.0353035183422472e+00 1.0930881032049593e+01 -2.2238795025366245e+00 1.7614984389078425e+00 3.8158348756452258e+00 -5.4428428575997312e-01 
        </Neuron>
        <Neuron NSynapses="9">
          -4.8029846894895432e+00 9.7603975549906308e-01 -2.9765846162840344e+00 -3.9173008594803180e+00 1.0515681071261831e+01 3.2644403302401093e-01 -2.0997320004085660e+00 5.6391408327276160e+00 -2.2726920249892407e-01 
        </Neuron>
      </Layer>
      <Layer Index="1" NNeurons="10">
        <Neuron NSynapses="1">
          -9.4832466434197098e+00 
        </Neuron>
        <Neuron NSynapses="1">
          -5.2030717490518006e+00 
        </Neuron>
        <Neuron NSynapses="1">
          9.3726843209334429e+00 
        </Neuron>
        <Neuron NSynapses="1">
          6.5514377378300157e+00 
        </Neuron>
        <Neuron NSynapses="1">
          8.1753889435283291e+00 
        </Neuron>
        <Neuron NSynapses="1">
          7.0941536776614180e+00 
        </Neuron>
        <Neuron NSynapses="1">
          5.2359494261796691e+00 
        </Neuron>
        <Neuron NSynapses="1">
          6.0945449010332027e+00 
        </Neuron>
        <Neuron NSynapses="1">
          4.5714436497265689e+00 
        </Neuron>
        <Neuron NSynapses="1">
          -7.7290851150448354e+00 
        </Neuron>
      </Layer>
      <Layer Index="2" NNeurons="1">
        <Neuron NSynapses="0"/>
      </Layer>
    </Layout>
    <InverseHessian NElements="3025" NRows="55" NCols="55">
      <Row Index="0">
        3.1817726660264927e+00 1.6178325914104938e+00 -1.7385406611602142e-01 -1.6995283895166674e-01 1.5965506273823576e-01 8.9662388867493970e-01 2.7668078510465777e-01 -1.1476724574589880e-01 3.1014412210999409e-01 -3.6730343976302887e-01 -1.0093197726117715e+00 1.1267222643729491e-01 1.2302244518575789e-01 -1.0631525132387859e-01 -2.7547578792283489e-01 -1.6065869118111736e-01 5.3823272428530959e-02 -3.2599861362328081e-01 3.7261879966927265e-02 -4.1649426686507857e-01 2.6034215206175026e-01 -2.8542057625127331e-02 -1.8847405951331095e-01 -6.4752292149058155e-01 -2.7631921314698299e-01 -7.0707098236361843e-02 2.4111444990103717e-01 -7.6329248684371090e-02 9.4956257294970947e-01 4.8901723549455756e-01 2.1187074852045470e-01 -6.8252397162599743e-01 6.2170040985278419e-01 1.1362024820550376e-01 -1.5666717388436457e-01 -1.7629944250477335e-03 2.0945259409679307e+00 9.2535991371255877e-01 3.2995846171169840e-01 1.4188617212983523e-01 -5.1369062053786463e-01 4.8096083831042219e-01 3.0713947774795791e-01 -1.2511828980026429e-01 4.1022718718288533e-02 -1.0552992977328410e+01 -5.9715740962357522e+00 1.9991366897096468e+00 6.2386284477533183e-01 7.4895240744512293e-01 2.4488493494821650e+00 4.9422550989112646e-01 2.1367619162596337e-02 9.2976230695190587e-01 -5.2920510613960756e+00 
      </Row>
      <Row Index="1">
        1.6178325914017149e+00 5.9607937513657028e+00 -2.4493017456953739e-01 8.6766678515784415e-02 3.4727584180908788e-01 3.1256563123896481e+00 1.6101405558231280e-01 1.7324712346082397e-01 -8.2383622122095812e-01 -3.2113962155861542e-01 -1.7718392648186763e+00 3.5826048440960982e-02 -5.9094501510255304e-02 -1.5633152417585244e-01 -5.6246873182846036e-01 -2.0952343608759910e-01 1.7590868922709554e-01 4.6215477608813782e-01 1.7594382019107022e-01 -1.3780615661389986e+00 -3.1899975829749594e-01 -8.5105456453505660e-03 -1.3270628896756134e-02 2.5275758573701862e-01 2.4034545859864995e-01 -9.7939052211408736e-02 1.2633545597448603e-01 2.5697075824574178e-01 1.3715146672942031e+00 4.0309966870636210e-01 4.4419772185556283e-01 2.9860687058966601e-01 -1.4569954725955375e-01 5.0748251943820966e-01 -4.2466814555166027e-01 -1.0721253106602177e-01 1.1388064078882696e+00 4.6877854520429203e+00 1.1216156029878421e-01 4.4237166628411839e-01 4.6027140304220104e-01 2.2781953569153690e+00 1.9654006236441524e-01 -3.5835463864734241e-02 -5.8157875114470048e-01 -6.0102625382232429e+00 -7.3568227646279283e+00 -1.0201894948490358e+00 2.6511962170696246e-01 -5.2206866374212035e-01 -1.3983569615120732e+00 -9.6716712184532305e-01 -1.3225821054742765e-01 -5.0630160292301252e-01 1.9708750455312227e+00 
      </Row>
      <Row Index="2">
        -1.7385406611554671e-01 -2.4493017456977251e-01 7.1682515340256892e-01 -1.7335075803098676e-02 -8.9433473172119110e-02 -9.7514484332984930e-02 1.0126425463476141e-01 2.2028701518223598e-01 -3.6290508895856971e-02 8.9497945908167426e-02 1.3958202621497939e-03 -1.1590049724289840e-01 -7.4271533058289013e-02 9.7070055079726492e-02 1.8063338122658767e-02 3.3503241126778389e-02 -3.2594742888374578e-02 -6.3779852787198554e-03 6.1902811712822178e-02 9.1305041390996766e-02 4.2163783352452272e-02 1.9712780364244488e-02 -1.9359023795689864e-02 -2.4315269150196284e-01 -1.7319713397908928e-01 -1.8574239570611772e-03 -6.5066095438783333e-02 -1.6403354894635735e-03 -2.3965043293283100e-01 -8.5798539712714916e-01 5.9405219893100422e-02 -6.7348309181221044e-01 1.3641783405350544e-01 -5.2492040928761481e-02 -1.3800743605672244e-01 -1.8401913899632652e-02 -1.1649495594249196e-01 -1.6345978035680309e-01 -2.4300213147884459e-01 -3.1962360778753585e-02 -6.0179545247705846e-01 -1.4760259729428701e-02 1.2983250642492322e-01 6.1647078708816194e-02 4.6800328579097439e-03 5.9861527930313241e-01 2.3983570806171306e-01 1.1971928103423082e+00 -2.6779428427114221e-01 1.2612804810004585e+00 1.1009067574632780e+00 1.9850592426891492e-01 -1.3270025164968802e-01 -3.1337499783562928e-02 -7.0870479099594053e-01 
      </Row>
      <Row Index="3">
        -1.6995283895242663e-01 8.6766678514706819e-02 -1.7335075803047675e-02 7.5031970036091766e-01 2.3393531680686397e-01 1.3274645387171452e-01 -2.5511479658500802e-01 3.1246061761023375e-01 -8.3905479532795069e-01 3.8143512540457752e-02 1.5355192661074213e-02 -1.4172582724454069e-02 -4.8212885741661216e-01 -6.3539772289955984e-02 2.7028357570435863e-01 5.7630429376456113e-02 -1.6454812546350456e-01 3.8001205411391337e-01 2.3657346453922895e-02 2.0756981981026237e-01 1.4230244404651701e-01 -2.8285846347148903e-02 -2.3554602016602352e-02 3.2241781645009038e-01 1.7744975703654164e-01 -5.3921920499227971e-01 -1.2052789407933534e-01 2.3247392394212862e-02 7.4484525917939526e-02 -5.3435333364108306e-01 -5.6700705089414472e-01 -1.3539987016048636e-02 -2.6279933699989261e-01 4.2147076565926977e-02 5.3627014468378764e-01 -3.4782001778125404e-02 -1.1112830564495144e-01 5.4137436614196677e-03 -4.7696824064733007e-01 -1.1281254650478079e-01 1.1871975814907425e-01 1.6272882005609257e-01 -2.4432952319749904e-01 9.6266765205783988e-01 -5.2296726090315626e-01 5.1302474767691320e-01 -9.4044745500727567e-01 -2.0444496823105712e-01 -2.1805192816327779e+00 8.5434026554880665e-02 -3.7571401602739096e-01 -7.5995102406878368e-01 -2.1600897695288395e+00 -6.9672279754588162e-01 1.4246881010946950e+00 
      </Row>
      <Row Index="4">
        1.5965506273660132e-01 3.4727584180824456e-01 -8.9433473171819600e-02 2.3393531680664423e-01 3.5121698738438739e-01 2.3382300022879965e-01 4.0526877134226813e-04 1.0577312933773349e-01 -2.6274342679974888e-01 -2.6702327515101865e-02 -3.1420427218257885e-01 1.3319266001230576e-01 -1.7690703985068693e-01 -7.7493565894778529e-02 8.6328799306235483e-03 1.1762671143331791e-02 -8.8198462509350498e-02 3.6353379559287982e-02 -6.8644625288171151e-03 1.2016308405332174e-01 2.6495579925054580e-01 -2.4997334014679004e-02 -1.6259528439069720e-01 -2.3511304596518345e-01 4.7271312545016805e-02 -3.1836135919475617e-01 3.1960650807307270e-02 3.2830365263603570e-02 2.6853213716264329e-01 -8.0818037910042340e-01 -1.7487603832133797e-01 -8.1828409888946363e-01 1.9396879029841815e-01 6.0355022351008335e-02 2.6383264584554317e-01 2.5859103196958812e-03 1.4608644068576770e-01 -1.8911719223930479e-02 -6.7431514067334786e-01 -4.2608801416926911e-02 -5.0628374107953522e-01 1.6056601899300230e-01 2.5823331494929852e-02 4.6978537823937627e-01 -2.1484952525352846e-01 -5.7750206826838335e-01 -2.4751353445121351e+00 1.3321904515579699e+00 -9.8230371678877881e-01 1.1660536463449360e+00 1.3460743647594677e+00 -3.5587352779397585e-01 -1.2388425485733714e+00 -7.4160901067224172e-02 6.0833962949994425e-01 
      </Row>
      <Row Index="5">
        8.9662388867059695e-01 3.1256563123895362e+00 -9.7514484332315202e-02 1.3274645387167897e-01 2.3382300022951263e-01 2.2495171701259902e+00 -2.2448760727283248e-01 2.0225601042576818e-01 -4.4686472151092843e-01 -1.6797635338177214e-01 -1.7422426489848715e+00 4.9728571638314963e-02 -1.1195808057389042e-01 -6.3341254509833356e-02 -3.6585033396299305e-01 -4.3402218115440983e-02 8.8040291694025566e-02 2.9318395372149453e-01 1.1297728721862124e-01 -6.0958233347344815e-01 -1.3732320433260140e-01 -1.0649141073572954e-02 -7.7339163346563322e-02 -9.8123189527817267e-01 2.0673482609193639e-01 -1.9785671416697020e-01 1.1486269374327218e-01 8.8921289541946502e-02 1.2640002413344418e+00 -1.7889182287444114e-01 2.3414091301670648e-01 -3.8308951425173537e-01 6.5156894946784183e-01 3.0959283589727671e-01 -7.5200116501659434e-02 -4.7828931140772982e-02 5.7716665430848346e-01 2.0558800388893470e+00 -2.6790323607541267e-01 2.5763750582556477e-01 -1.7719063711476013e-01 1.5690645264130918e+00 -1.1846790336757028e-01 2.9271831733351639e-01 -3.1733448829232658e-01 -3.4280953215327461e+00 -9.0931275993283993e+00 4.7614422458536865e-01 -1.8923192550228876e-01 4.7742996246951469e-01 2.7048613563789501e+00 -9.9223539858442589e-01 -8.4498973523300558e-01 -3.5517569876894184e-01 2.4674980404688198e+00 
      </Row>
      <Row Index="6">
        2.7668078510391569e-01 1.6101405558336684e-01 1.0126425463443937e-01 -2.5511479658458625e-01 4.0526877098404079e-04 -2.2448760727282313e-01 1.1080353522945470e+00 -3.3900550777683602e-01 3.7825346399768578e-01 -1.4942205255827378e-02 5.3333086956242104e-01 -7.7343770719763200e-02 2.9150533647305088e-01 1.9531626990608938e-03 3.4604703471447784e-02 -4.9323639061365235e-02 6.1004463372299512e-03 -5.0561477336853744e-01 1.2444554487973672e-02 1.4026607452614040e-01 -7.4504986761000591e-02 -5.5728974708028622e-03 -5.9223692546485698e-04 4.5908289488866316e-01 -6.2967494374529587e-01 3.5999437982638077e-01 1.2608594002186085e-01 1.2540690357179640e-02 -4.8183203646336553e-01 6.1216697132826725e-01 2.5829128004837659e-01 1.4703851339797452e-01 -3.3938477272740741e-01 -4.3107378442047772e-01 -4.5413527237409840e-01 4.1532480379193312e-02 2.2459435025213570e-01 4.9457967265777647e-01 5.6531689453725398e-01 1.6876983887659025e-01 1.4806077423247715e-01 -1.4133189686654057e-01 7.8606286951178461e-01 -8.7683965510430784e-01 1.1180561948238850e-01 -7.9536519150080076e-01 2.4790863833965675e+00 -2.8009206767635630e-01 1.3692292236463064e+00 -3.2344479902928797e-01 -1.2083886551527008e+00 1.6551171128516735e+00 1.7960330350141778e+00 9.2445691592520884e-01 -1.5131881367105837e+00 
      </Row>
      <Row Index="7">
        -1.1476724574480951e-01 1.7324712346157750e-01 2.2028701518245253e-01 3.1246061761052674e-01 1.0577312933852751e-01 2.0225601042729902e-01 -3.3900550777716576e-01 8.9921738309085841e-01 -3.5082195963027446e-01 -1.1149725870682144e-02 -3.1080855581034711e-02 -5.0554139429343059e-02 -5.0046395323390280e-01 -3.5198156594593633e-02 2.0750870681144082e-01 4.1006624422648463e-02 -2.2500605335208668e-01 4.3393038393905947e-01 2.0486786611495889e-02 1.0424538619129861e-01 9.6022402683591607e-02 -8.1459968256853033e-02 2.8182448163959428e-02 2.4526326365896622e-01 1.1369442527378434e-01 -5.3417234804464031e-01 -5.4580846057737484e-02 3.5813982985265558e-02 1.0161726102530558e-01 -3.8859813068509891e-01 -2.4419473359538241e-01 2.3448366623363492e-01 -1.8456207103708022e-01 1.2508074154149285e-01 7.1747043200533656e-02 -7.2981544514016922e-02 -9.5063699626932271e-02 1.4473658247242160e-01 -1.8502054035113161e-01 -1.7092753779664938e-01 2.7588678043521142e-01 1.6370774530429832e-01 -2.5453565452976273e-01 1.0229821407247008e+00 -1.3998372808190621e-01 5.3310116861969215e-01 -1.0686628863999563e+00 -3.1452033258328743e-01 -2.2152749769676006e+00 -2.5034272607786034e-01 -3.5142604054871929e-01 -6.3504484569892217e-01 -2.1309469249406132e+00 -7.0357112239205488e-01 1.6442614035229086e+00 
      </Row>
      <Row Index="8">
        3.1014412211309178e-01 -8.2383622121879940e-01 -3.6290508895495219e-02 -8.3905479532874905e-01 -2.6274342679979246e-01 -4.4686472151032786e-01 3.7825346399898863e-01 -3.5082195963081186e-01 2.5950879356985506e+00 -1.2015776680635011e-01 -3.4477218886986405e-01 1.5444409475089588e-01 6.2674700889419788e-01 1.1961653700150537e-02 -6.1755274868466004e-01 -2.3325670804925455e-01 2.6922157962090132e-01 -1.3933566979207623e+00 -6.0844952889285292e-03 -3.2887212847049907e-01 -1.2462645883961340e-01 1.0814166432253730e-01 1.0208122879328319e-01 -1.3901428593474920e+00 -3.7802387709344715e-01 5.2881891482729970e-01 5.5026432548856197e-01 -3.9420003115902102e-02 3.1856556534808300e-01 6.7084457951869103e-01 9.1866254615263099e-01 6.8934627933748371e-01 1.1797334096338428e+00 7.7021233894121188e-03 -5.6641113475680038e-01 9.0831604139904792e-02 1.3009812697022788e-01 -9.9252495788267492e-01 6.8318924826907068e-01 3.4821890276315115e-01 4.1419175415934323e-01 -6.1673044014100087e-01 3.5532084737701641e-01 -9.2797507188545736e-01 1.4783691788523596e+00 -6.1188676113352969e-01 -1.5605690060652171e+00 6.4440275201502739e-01 3.1606229428369765e+00 -3.8786669237973237e-01 3.0649473390508124e+00 1.3710822860386542e+00 2.3359637256655446e+00 2.1804261471842938e+00 -1.2728559349535236e+00 
      </Row>
      <Row Index="9">
        -3.6730343976298802e-01 -3.2113962155969988e-01 8.9497945908147913e-02 3.8143512540351893e-02 -2.6702327515451828e-02 -1.6797635338255862e-01 -1.4942205255786149e-02 -1.1149725870518733e-02 -1.2015776680615621e-01 1.0520579206342898e-01 1.9482997099915839e-01 2.5144699782759426e-02 -3.8151072608323469e-02 8.9827655534246154e-03 4.7634286801441467e-02 5.6705048816688079e-02 1.1627845253982250e-03 3.5253660206850806e-02 5.2946976025787587e-03 1.1128850031177218e-01 -1.2749624762626512e-02 1.5151375264034178e-02 -1.6127613302137356e-02 1.1711923525779239e-01 -4.6637707221871549e-03 4.7429003325525312e-02 -2.8375583856427244e-02 -2.1126286922490280e-02 -2.4791110759705562e-01 -1.5891811621894253e-01 -4.2863981431458129e-02 -1.9688054520732673e-01 -9.8767419971399206e-02 -6.5954589031335067e-02 -2.2892097227136095e-02 -3.7578170605827056e-03 -2.3073162444113268e-01 -1.9316746390295175e-01 -4.6823437985854227e-02 -4.3716592388628406e-02 -1.9156723907383497e-01 -7.0172883913075162e-02 -2.3354550449805115e-02 -6.0921572627243181e-02 -7.0342135673403944e-02 1.1022024227136153e+00 1.6161205963906391e+00 1.1648918473367131e-01 -2.0982329648683785e-02 2.7875749882193906e-01 -2.2020298477959277e-01 5.6050580738023867e-02 1.6886284957382536e-01 -8.0764933421390350e-02 -3.3000534676460963e-01 
      </Row>
      <Row Index="10">
        -1.0093197726122720e+00 -1.7718392648202019e+00 1.3958202602193069e-03 1.5355192663343981e-02 -3.1420427218378583e-01 -1.7422426489857417e+00 5.3333086956018361e-01 -3.1080855576495415e-02 -3.4477218887176181e-01 1.9482997099828486e-01 4.2617131815121923e+00 -1.8234051545034055e-01 1.4516470388987751e-01 3.1510408107361582e-02 1.1186475189889258e+00 1.9082020979172343e-01 -3.3378913241495600e-01 1.0788350235051450e-01 -1.8182374405136340e-01 1.8776234682091346e+00 6.0011517943331712e-02 -1.0122032224009514e-01 2.3100389521254328e-01 3.9764749869360214e+00 -5.5522575322707080e-01 5.3746285194123522e-01 -4.3013359014351016e-01 -1.0776677605633511e-01 -3.1789046684349138e+00 4.9029365886396109e-01 -1.8348438065355099e-01 1.3169022742772580e+00 -2.7189173449783595e+00 -7.1543564673420490e-01 -4.8015649520541492e-01 4.1658048459910658e-03 -5.8030427980764809e-01 2.5579036212205031e-02 3.1919695453695707e-01 1.0095937883319417e-02 9.3293382741747055e-01 -1.0439637693961399e+00 2.5591899277737135e-01 -9.9050995643362327e-01 -8.3886583577897827e-02 3.9191247659143960e+00 2.0714083006671153e+01 -2.5171811773909871e+00 2.9320837780428426e-02 -1.9058239673750756e+00 -1.0932792431175276e+01 2.2003746090515817e+00 2.1731387813254490e+00 -3.3589126740706288e-01 -4.5418228704298720e+00 
      </Row>
      <Row Index="11">
        1.1267222643631258e-01 3.5826048439836083e-02 -1.1590049724244716e-01 -1.4172582725140798e-02 1.3319266001206123e-01 4.9728571637115700e-02 -7.7343770719008040e-02 -5.0554139430080976e-02 1.5444409475093240e-01 2.5144699783107329e-02 -1.8234051544750829e-01 6.3232284437331765e-01 -3.1303250173489755e-02 -1.3605486208951600e-01 -3.0525865317580558e-01 2.6783571558459531e-02 7.9623334645079369e-02 -1.5645849978659671e-01 -3.8955064861126813e-02 2.8516472718916730e-01 3.9377932696728940e-01 5.2526174519439139e-02 -2.1977792794755185e-01 -5.5255385644425692e-01 3.5542488902157249e-02 -2.7389539973649013e-02 1.3896556572354846e-01 -1.5992182226159279e-02 1.2483819442304589e-02 -7.5833356789473505e-01 9.3941641359115230e-02 -8.1713374495200730e-01 5.8031488991228652e-01 9.3078974657330005e-02 2.5356009866297075e-03 -1.5920305745178616e-02 1.3073990021709081e-01 -5.4470792672757118e-01 -2.5010993943008514e-01 -6.7164056319441792e-03 -7.2782145324398839e-01 -5.7729848527448446e-02 2.5503868381784318e-02 4.5059094222409946e-02 7.3558475862751105e-03 -3.9708866433800116e-01 1.6225578949763245e-02 1.8344538863485640e+00 2.4094157130705540e-01 1.2112125722919334e+00 2.0532756973205522e+00 -7.6622518754615454e-03 -4.4793694419490659e-02 2.9945954814297610e-01 -1.8677550786391537e+00 
      </Row>
      <Row Index="12">
        1.2302244518371971e-01 -5.9094501511519570e-02 -7.4271533058421949e-02 -4.8212885741666200e-01 -1.7690703985128303e-01 -1.1195808057554166e-01 2.9150533647320542e-01 -5.0046395323381787e-01 6.2674700889350510e-01 -3.8151072608087790e-02 1.4516470389419800e-01 -3.1303250174262373e-02 7.6725711560446319e-01 4.1672727228668369e-02 -1.3177020040060575e-01 -5.2318956671275001e-02 1.2382422399621135e-01 -6.6634715298353830e-01 -4.1814855510330123e-02 -1.1901006608526282e-01 -5.8216848081039385e-02 2.4781739949361115e-02 -2.1809594735379884e-02 -1.0983081199515188e-02 -1.9260368477955137e-01 5.5150274282667344e-01 9.5780834729908532e-02 1.2451576694419431e-04 -1.4508039131072091e-02 4.2518859388461316e-01 4.3303940720358469e-01 -1.6253194600666288e-01 2.5543942489132110e-02 -9.0972177964050965e-02 -2.4027793566003494e-01 2.0492149641989094e-01 8.6374697407070766e-02 5.8609387723409290e-02 2.7684240097561341e-01 4.2241552586975856e-01 -2.5691287782645089e-01 -1.3211519275397501e-01 2.5118415334629368e-01 -8.9112573124523220e-01 2.8888465351962234e-01 -4.9804914175561066e-01 4.7881294423106485e-01 3.4712343274361251e-01 2.4151391381046112e+00 2.0354814154258621e-01 -2.0600955447074631e-01 8.7870363097365500e-01 2.2590572262010089e+00 9.7029479336615676e-01 -5.9869378132763307e-01 
      </Row>
      <Row Index="13">
        -1.0631525132370037e-01 -1.5633152417596316e-01 9.7070055079698306e-02 -6.3539772289770535e-02 -7.7493565894853164e-02 -6.3341254510000916e-02 1.9531626989215400e-03 -3.5198156594359674e-02 1.1961653699828823e-02 8.9827655533961399e-03 3.1510408107787852e-02 -1.3605486208969392e-01 4.1672727228378684e-02 2.0900293775744427e-01 1.1095694723957146e-02 4.6540742659619411e-02 1.9194088815904016e-02 3.3971683219699872e-02 2.7939927892999552e-03 4.2748380202437056e-02 -7.0152876116633539e-02 3.9725694385127769e-02 1.0872990855967632e-01 -6.1558834212471297e-02 -2.9991570897274472e-02 5.1006495740158322e-02 -3.1380996919921939e-02 -2.1909352057646238e-03 -7.7433818148173045e-02 -1.0833235282176393e-01 8.6398253146654100e-02 -1.6726683525111530e-02 2.7497778149087951e-03 -2.1222035976129358e-02 -7.3409402636387941e-02 -6.1103913652449911e-03 -7.9997050788202212e-02 -9.4681895870161653e-02 -8.9908275673716176e-02 8.5344471892111334e-03 6.0654153048496126e-02 -2.3746436064908897e-02 3.2795379376312717e-02 -1.1074099737695056e-01 4.8477343476322259e-02 3.9041068331988588e-01 1.2110420640895708e-01 1.5491655283648703e-01 2.5577157172098325e-01 9.2786586296190757e-02 1.6942416534099236e-01 7.6303434059786499e-02 2.9568459921337664e-01 -1.3805542236041807e-01 4.4572936602152724e-02 
      </Row>
      <Row Index="14">
        -2.7547578792320199e-01 -5.6246873182875534e-01 1.8063338122448820e-02 2.7028357570545775e-01 8.6328799310949195e-03 -3.6585033396235905e-01 3.4604703470211454e-02 2.0750870681271441e-01 -6.1755274868477084e-01 4.7634286801210922e-02 1.1186475189854748e+00 -3.0525865317570433e-01 -1.3177020040203627e-01 1.1095694723702323e-02 1.2371764590509238e+00 9.2515210916179300e-02 -1.9017113407225705e-01 2.6335247111559157e-01 -3.8577427101843823e-02 5.5407336478015468e-01 2.6285113019722850e-01 -1.1572816846724987e-01 -4.5504705434878723e-02 2.4708083861520125e+00 2.8749395483653215e-02 -1.2380152666449451e-01 -2.7874873473131978e-01 8.8977823081981544e-04 -4.2231458147663015e-01 -4.2353807410585732e-02 -3.8028872566639504e-01 4.2224359238107106e-01 -1.9007873824852362e+00 -3.2332969714286497e-01 2.1427069015115124e-01 4.5272816400083626e-02 -1.6844960199216347e-01 2.8200618899300900e-01 -3.1320937111891201e-01 -8.4330125291191133e-02 3.9982995018436396e-01 -9.4948155028175663e-02 -1.9947359933121458e-01 3.1565808973770437e-01 -2.9744490095411880e-01 8.8208656270450359e-01 1.8383398646399711e+00 -1.0733471861511892e+00 -1.3480904947451249e+00 -7.4568674894967202e-01 -4.5035678437860938e+00 1.1624912629237794e-01 -7.3641149008421292e-01 -5.7439929156912162e-01 3.4306381385679825e+00 
      </Row>
      <Row Index="15">
        -1.6065869118143231e-01 -2.0952343608825402e-01 3.3503241126783476e-02 5.7630429376529319e-02 1.1762671143198809e-02 -4.3402218115885793e-02 -4.9323639061425679e-02 4.1006624422733985e-02 -2.3325670804942997e-01 5.6705048816729733e-02 1.9082020979225445e-01 2.6783571558222020e-02 -5.2318956671422584e-02 4.6540742659627932e-02 9.2515210916452859e-02 2.1020488863979536e-01 -1.2813178974321221e-01 1.3408330156153969e-01 -1.0840665123426838e-03 2.3473998163596199e-01 8.6054520858832015e-02 -3.1895917479233440e-02 -3.6366410129808527e-02 7.9087093457873014e-02 -5.7391412162733579e-02 -3.8690547140617107e-02 -1.7366006950730706e-02 -2.1122456844971806e-02 -2.3922746879838896e-01 -1.6508734575821316e-01 -6.8953242047593885e-02 -3.2827886830623831e-01 -6.3040364061658402e-02 -1.0527219732990152e-01 7.5188952225813954e-03 1.1585319009994592e-02 -8.4763129017326966e-02 -1.1979915022722623e-01 -9.7608929871162931e-02 -2.8735548250092752e-02 -2.4689857584832048e-01 4.0008407776856436e-03 3.5425290761958134e-02 -2.1100347995230834e-02 -1.2700290309889856e-01 5.6888389479540180e-01 9.1663052904594977e-01 5.1552249679155993e-01 -3.0376554178987697e-01 3.6351698685158890e-01 1.6994131521329037e-01 4.2380015028867318e-02 -1.0917686117356490e-01 -3.4362734480069246e-01 -2.6595984638305176e-01 
      </Row>
      <Row Index="16">
        5.3823272428691046e-02 1.7590868922703834e-01 -3.2594742888247361e-02 -1.6454812546375819e-01 -8.8198462509452805e-02 8.8040291693749273e-02 6.1004463374781243e-03 -2.2500605335220603e-01 2.6922157962102655e-01 1.1627845254414716e-03 -3.3378913241394786e-01 7.9623334645116339e-02 1.2382422399642976e-01 1.9194088815996019e-02 -1.9017113407223654e-01 -1.2813178974315423e-01 3.0200928348562994e-01 -1.5467230160653256e-01 1.6446193312234153e-02 -3.1814486368906958e-01 -8.1578024992037021e-02 8.2301018163728604e-02 2.1493511582421229e-02 -2.3704835478108516e-01 6.7703222043548783e-02 1.9644098231359827e-01 -4.2925120335125105e-03 -2.0451714726612349e-03 2.8046254901665879e-01 1.5382581832124378e-01 2.2617817669690926e-01 7.2098954051701108e-02 1.7743413248795570e-01 8.7479458418825790e-02 -1.5075578573012779e-01 2.5922717871341046e-03 1.6142460136107751e-02 2.7560934299096784e-02 1.6648367438987308e-01 6.5098224434839536e-02 -9.1361434710159756e-04 4.3706839828186586e-02 -3.0671207902226327e-02 -2.3389996057538909e-01 1.7553436599117439e-01 -3.5147322055268571e-01 -7.3193948342745085e-01 -1.2355894308054938e-01 1.0747960010710356e+00 -8.1909522460424170e-02 2.9729132844295691e-01 4.6853801292825188e-02 8.3841705467169936e-01 3.3958885189069921e-01 -2.0081213080628421e-01 
      </Row>
      <Row Index="17">
        -3.2599861362185517e-01 4.6215477608893130e-01 -6.3779852790204483e-03 3.8001205411439926e-01 3.6353379559638570e-02 2.9318395372312067e-01 -5.0561477336949845e-01 4.3393038393991817e-01 -1.3933566979202265e+00 3.5253660206480061e-02 1.0788350234527845e-01 -1.5645849978629384e-01 -6.6634715298439173e-01 3.3971683219287979e-02 2.6335247111478405e-01 1.3408330156124731e-01 -1.5467230160637990e-01 1.8099254203696660e+00 3.7490640099666038e-02 1.4234976061688090e-01 -1.8348048602394168e-02 -9.9943945700185777e-02 6.0665040233588929e-02 5.4726252754408355e-01 2.7057072562262391e-01 -3.5279486543754718e-01 -6.4104386214651377e-01 9.3791037103071254e-03 -4.4893070842891059e-01 -1.7981048660158913e-02 -5.1992598973154469e-01 3.9358736490995239e-01 -5.1035283714010538e-01 1.3096069830872192e-01 6.0353787811812595e-02 -3.2503781776535345e-01 -2.4247640271605506e-01 6.6614763822124101e-01 -9.7827004390626748e-02 -4.4963640926594706e-01 3.9134357636087802e-01 3.4870644202202372e-01 -3.5244610889106454e-01 5.2825463933782646e-01 -4.2753936312595314e-01 1.1611359952249372e+00 2.2042054567697069e+00 -1.3336899898680927e+00 -2.6134204159055949e+00 -9.2567391843033020e-01 -1.7857143499504815e+00 -1.1916332238293350e+00 -1.7054236142707015e+00 -2.4426093474992387e+00 3.3611179250584555e-01 
      </Row>
      <Row Index="18">
        3.7261879967172978e-02 1.7594382019139587e-01 6.1902811712830949e-02 2.3657346453916463e-02 -6.8644625287269650e-03 1.1297728721892542e-01 1.2444554487919583e-02 2.0486786611422607e-02 -6.0844952888360771e-03 5.2946976025515444e-03 -1.8182374405191182e-01 -3.8955064860966851e-02 -4.1814855510243241e-02 2.7939927892790747e-03 -3.8577427102018828e-02 -1.0840665123568773e-03 1.6446193312292103e-02 3.7490640099450162e-02 6.2099580293829795e-02 -1.6231101232444545e-01 -9.2406626139233172e-02 -1.9272353849359991e-03 2.3139905348053325e-02 -7.7177159583135119e-02 -6.0532434041234845e-03 -5.3129700774035782e-02 3.8406108440292262e-02 4.6290108202262994e-04 1.2594142552956927e-01 4.6343230223464919e-02 1.4520437358895986e-02 2.0316907483329710e-01 3.0620161741541550e-02 2.6565821107845777e-02 3.1863553519550711e-03 -9.9111161099758802e-03 -8.0894886140100535e-03 1.4793538866492573e-01 5.9203256348528410e-02 8.0751083907955948e-03 1.7530951025559627e-01 8.4258137387824672e-02 1.2277839492911103e-02 6.4792252778869824e-02 -7.0056011196744650e-03 -1.9973656521627364e-01 -7.0664511437881683e-01 -4.1577002000559504e-01 -1.1884134319127468e-01 -2.4702352350190593e-01 1.4877474117645456e-01 -1.4340532008974760e-01 -2.1275503387794686e-01 -8.4798750804585155e-02 1.6449479924907640e-01 
      </Row>
      <Row Index="19">
        -4.1649426686614915e-01 -1.3780615661401954e+00 9.1305041390765049e-02 2.0756981981043449e-01 1.2016308405262344e-01 -6.0958233347472390e-01 1.4026607452610623e-01 1.0424538619164905e-01 -3.2887212847166575e-01 1.1128850031185430e-01 1.8776234682117345e+00 2.8516472718786723e-01 -1.1901006608585429e-01 4.2748380202449018e-02 5.5407336478121350e-01 2.3473998163596152e-01 -3.1814486368940686e-01 1.4234976061865476e-01 -1.6231101232435274e-01 2.9451703699384519e+00 3.8045571276663548e-01 -1.8943482568012371e-03 -8.4432981651664685e-02 3.7065667055002471e-02 -3.5327215618346064e-01 -6.8803450852497505e-02 -2.2756014575776273e-01 -7.8028091169777936e-02 -1.9958404467392517e+00 -1.5834681435208264e+00 -3.3300429226402634e-01 -1.1728353994093095e+00 7.5121416259455676e-02 -4.8505956324584143e-01 3.7058081072440574e-01 -1.4214342053422713e-01 -1.6406559494765444e-01 -1.7541889240879007e+00 -1.1145062122004608e+00 -2.1508965218695758e-01 -9.1593040088536470e-01 -4.4113690325657373e-01 4.5061636101546565e-02 2.5528158961932756e-01 -2.6082894033893406e-01 1.9250656650807585e+00 5.3189403648208753e+00 2.2292293531867609e+00 -1.1687191052536172e+00 1.8714350233281087e+00 1.7991129863575583e+00 8.1184396219109156e-01 -5.1374039409470296e-01 -4.5723753255632626e-01 -3.7234874932812576e+00 
      </Row>
      <Row Index="20">
        2.6034215206007577e-01 -3.1899975829900223e-01 4.2163783352989356e-02 1.4230244404602857e-01 2.6495579925037288e-01 -1.3732320433416290e-01 -7.4504986760065492e-02 9.6022402682614333e-02 -1.2462645883973096e-01 -1.2749624762169121e-02 6.0011517946717427e-02 3.9377932696719314e-01 -5.8216848080149528e-02 -7.0152876116441887e-02 2.6285113019704959e-01 8.6054520859070616e-02 -8.1578024992109380e-02 -1.8348048602678413e-02 -9.2406626139399678e-02 3.8045571276811102e-01 1.3398777440386456e+00 4.2249756443475790e-02 -4.9141680236672236e-01 8.0261070793457706e-02 1.3104074073227442e-01 -2.2021762591794425e-01 -1.8031346564986567e-01 -8.1541266138830948e-03 -5.8626868852488093e-02 -9.8270035583176285e-01 -9.6692315525025996e-02 -1.9830573358532164e+00 1.1737753689737544e-01 8.6235800141600483e-02 9.8536838398581947e-02 1.2737799669335373e-02 2.4616020421379550e-01 -4.6039930974952786e-01 -4.7669508343350753e-01 -3.7096004563108631e-02 -1.6401506012456690e+00 -1.3176889695970240e-01 1.6979678022409017e-02 2.8712521285377157e-01 -3.6117204377126400e-02 -8.1724819029599183e-01 -8.5263527847021670e-01 4.0010623126236453e+00 -5.1464046827298404e-01 2.3105629115004040e+00 1.8453019934574111e+00 1.7344366875673908e-01 -5.5048440311211599e-01 1.2526039575653727e-01 -1.5136618167842864e-01 
      </Row>
      <Row Index="21">
        -2.8542057624878658e-02 -8.5105456454715039e-03 1.9712780364365308e-02 -2.8285846347265844e-02 -2.4997334014731379e-02 -1.0649141073750312e-02 -5.5728974706615343e-03 -8.1459968256886811e-02 1.0814166432249457e-01 1.5151375264067155e-02 -1.0122032223957461e-01 5.2526174519450207e-02 2.4781739949410991e-02 3.9725694385156510e-02 -1.1572816846726731e-01 -3.1895917479180705e-02 8.2301018163688927e-02 -9.9943945700188636e-02 -1.9272353849603963e-03 -1.8943482565517700e-03 4.2249756443527853e-02 1.5634437290410325e-01 2.9098404899160241e-02 -2.6296143137877714e-01 7.1800785844201409e-02 3.2847615342751491e-03 -4.8258963306794897e-02 1.7321523574253400e-03 8.8541394517768213e-03 -7.9982421579778890e-02 3.5760024341112862e-02 -3.7976589385265318e-02 2.2289206315607940e-01 2.9298092193270384e-02 -3.7514035820940109e-02 -2.1332477015103532e-02 -1.4191682817018061e-02 -1.3822833806767160e-01 1.7060440863644756e-02 -6.6502681122948576e-02 -4.9192304063703424e-02 -1.8059342266266820e-02 -2.8582359689989477e-02 -6.7737988866175144e-02 7.7293573770928575e-02 1.7817351405330639e-02 -3.4311032794747343e-02 3.8333429003545472e-01 4.0692352991740249e-01 1.9423022148206226e-01 6.4677258691720674e-01 4.3117415701139555e-02 3.6613405434422569e-01 1.6248819498868844e-01 -4.5055180114706328e-01 
      </Row>
      <Row Index="22">
        -1.8847405951100649e-01 -1.3270628895214812e-02 -1.9359023796022765e-02 -2.3554602016190515e-02 -1.6259528439032533e-01 -7.7339163344854689e-02 -5.9223692629660485e-04 2.8182448164869318e-02 1.0208122879348799e-01 -1.6127613302600392e-02 2.3100389520863446e-01 -2.1977792794714257e-01 -2.1809594736263926e-02 1.0872990855943118e-01 -4.5504705435236992e-02 -3.6366410130007035e-02 2.1493511582461371e-02 6.0665040233754242e-02 2.3139905348190524e-02 -8.4432981652658057e-02 -4.9141680236632423e-01 2.9098404899231323e-02 5.2776117437606318e-01 6.6090585308934413e-02 2.8666239229614435e-02 1.1394641140582529e-02 -4.1324381018862516e-02 -4.4004148656903025e-03 -8.8124322174935890e-02 5.3681341669846561e-01 5.3151312986238194e-02 1.7872542992433391e+00 -7.8853639787745511e-02 1.8839153789695834e-02 -7.9339378472862127e-02 -5.0869349543579134e-03 -1.7384796797529239e-01 1.9146766820811761e-01 3.1589349837630021e-01 4.2772109603215758e-03 1.5414650725195542e+00 -7.5889897152863595e-02 -2.0524622512180228e-02 -5.5311059952146704e-02 1.3437322439972280e-01 7.7433899484714708e-01 1.2471681255221414e+00 -2.0611970521634180e+00 -1.7537788897932449e-02 -1.7267789959902073e+00 -1.4913881646179896e+00 -2.3815973598224766e-03 8.7840983688724950e-02 -1.7709440434853965e-01 6.0174125464388439e-01 
      </Row>
      <Row Index="23">
        -6.4752292149580748e-01 2.5275758573394647e-01 -2.4315269150385757e-01 3.2241781645491263e-01 -2.3511304596489468e-01 -9.8123189527852217e-01 4.5908289488398552e-01 2.4526326366577872e-01 -1.3901428593499585e+00 1.1711923525704154e-01 3.9764749869311067e+00 -5.5255385644597865e-01 -1.0983081206044853e-02 -6.1558834213272018e-02 2.4708083861553716e+00 7.9087093457190616e-02 -2.3704835478217615e-01 5.4726252755007543e-01 -7.7177159582496713e-02 3.7065667051826567e-02 8.0261070791707301e-02 -2.6296143137915484e-01 6.6090585312603922e-02 9.8446596252364333e+00 -4.5667993246172552e-02 3.5452273622710595e-01 -5.2727213042538890e-01 2.6558972741061559e-02 -1.7167726828107506e+00 1.0819108973724616e+00 -4.1550928755443894e-01 2.2069017903859804e+00 -7.2213996614351057e+00 -9.2839958654732857e-01 -4.4134269108082980e-01 1.2374749266522472e-01 -4.0156343571916669e-01 2.9013653856318333e+00 2.5692267729764229e-01 1.3959664677463074e-01 1.7514143158303876e+00 -2.3377830044809822e-01 -3.3894835269170365e-01 -5.6058497407653274e-01 -6.8921818662091405e-01 1.5997832079264047e+00 2.0025887012686695e+01 -5.8520871799084233e+00 -1.0094932424993353e+00 -3.6216208359858792e+00 -2.3175729248723297e+01 1.3203904868967358e+00 1.3948005562222430e+00 -1.0421205440879240e+00 3.6078285345718513e+00 
      </Row>
      <Row Index="24">
        -2.7631921314702640e-01 2.4034545859747336e-01 -1.7319713397865780e-01 1.7744975703625226e-01 4.7271312545422786e-02 2.0673482609199167e-01 -6.2967494374545652e-01 1.1369442527349638e-01 -3.7802387709215479e-01 -4.6637707220735574e-03 -5.5522575322964518e-01 3.5542488902981673e-02 -1.9260368477942147e-01 -2.9991570897343750e-02 2.8749395482426499e-02 -5.7391412162764444e-02 6.7703222043844186e-02 2.7057072562158990e-01 -6.0532434041615322e-03 -3.5327215618358654e-01 1.3104074073329841e-01 7.1800785844394199e-02 2.8666239228791190e-02 -4.5667993251081285e-02 8.2118659672392735e-01 -3.4188024632275782e-01 -1.3109916330766402e-01 4.5535422422575744e-02 6.4585244027821920e-01 -2.0178955901928755e-01 -2.6876137946443307e-01 9.2522558670083285e-02 -3.4835683467848710e-03 3.4737801076150121e-01 5.7317299408446165e-01 -8.1849208287104736e-04 -2.1771826524916263e-01 -5.8139170992070929e-02 -2.7747410184264332e-01 -2.1489937194718473e-01 7.3875116131114291e-02 1.6777337476160048e-01 -6.0141711146652876e-01 7.9128049759508046e-01 -1.6058986248595297e-01 5.4128158481651001e-01 -2.9947680258054072e+00 -4.6057607191860461e-01 -8.3616891657337478e-01 -1.0576031579301637e-01 8.2431847314058393e-02 -1.4390005394250047e+00 -1.2958317316089070e+00 -4.7725655844123993e-01 2.4903706963822785e+00 
      </Row>
      <Row Index="25">
        -7.0707098237403482e-02 -9.7939052212231315e-02 -1.8574239574941434e-03 -5.3921920499206955e-01 -3.1836135919572822e-01 -1.9785671416878436e-01 3.5999437982648808e-01 -5.3417234804370195e-01 5.2881891482593857e-01 4.7429003325547420e-02 5.3746285194678733e-01 -2.7389539975071403e-02 5.5150274282598211e-01 5.1006495740370611e-02 -1.2380152666216249e-01 -3.8690547140548481e-02 1.9644098231314752e-01 -3.5279486543563632e-01 -5.3129700774040833e-02 -6.8803450852321202e-02 -2.2021762591952809e-01 3.2847615340739766e-03 1.1394641142204343e-02 3.5452273623673181e-01 -3.4188024632277109e-01 1.1082728327135911e+00 1.0783509317173978e-02 -2.1592810231343018e-02 -6.0237296680123587e-01 6.0252671650838441e-01 4.7497519514689412e-01 -1.1024766013020673e-01 -2.5832011921562370e-01 -2.6512214961845160e-01 -8.1093329812140547e-01 4.0205324272398313e-02 -1.4754626461340502e-02 3.7088224435498895e-01 4.4859401520636866e-01 2.5389889998753323e-01 -2.9093313250159863e-01 -1.1264192081316615e-01 2.7160249371846001e-01 -1.7048976832983378e+00 3.1638133067432150e-01 1.2164910940220808e-01 4.4331528642652493e+00 -1.4580558757561415e-01 2.8776282745866646e+00 -1.9372228682237314e-02 -1.6150021298307076e+00 1.3449785148333975e+00 3.5787917658182469e+00 7.4989475000626327e-01 -2.4322195495755885e+00 
      </Row>
      <Row Index="26">
        2.4111444990068084e-01 1.2633545597473045e-01 -6.5066095438525914e-02 -1.2052789407969017e-01 3.1960650807432801e-02 1.1486269374320260e-01 1.2608594002235540e-01 -5.4580846058519990e-02 5.5026432548857218e-01 -2.8375583856253130e-02 -4.3013359014240116e-01 1.3896556572380617e-01 9.5780834730718259e-02 -3.1380996919751165e-02 -2.7874873473140704e-01 -1.7366006950579889e-02 -4.2925120334319153e-03 -6.4104386214722775e-01 3.8406108440165836e-02 -2.2756014575696276e-01 -1.8031346564947220e-01 -4.8258963306751904e-02 -4.1324381019359827e-02 -5.2727213042439325e-01 -1.3109916330818300e-01 1.0783509318308786e-02 6.5192269958557414e-01 5.1825345839212125e-03 4.8733546621837837e-01 1.9941448887909297e-01 2.4160149581695353e-01 -1.1333431323928081e-01 4.5180004764255821e-01 4.0525445922927936e-02 4.5054288079056412e-02 6.2484220152172025e-02 1.6036633723925992e-01 -2.3234590822903520e-01 1.8402128454571351e-01 1.6658038286178772e-01 -7.4213408016844062e-02 -1.9442518279507992e-02 1.5620438625729299e-01 -1.7556185803366764e-02 4.0708109620056804e-02 -8.2430064582978335e-01 -2.5536776661342380e+00 2.3340414833830431e-01 6.5110736642288758e-01 8.1298499063096677e-02 1.6305041323519389e+00 5.9102019546040122e-02 -3.5267894399525879e-02 9.1760993289390647e-01 1.7657534639308145e-01 
      </Row>
      <Row Index="27">
        -7.6329248685043205e-02 2.5697075824516896e-01 -1.6403354893091276e-03 2.3247392394186307e-02 3.2830365263649401e-02 8.8921289541743165e-02 1.2540690357096686e-02 3.5813982985111070e-02 -3.9420003115756795e-02 -2.1126286922371406e-02 -1.0776677605652427e-01 -1.5992182225999893e-02 1.2451576703040264e-04 -2.1909352057280923e-03 8.8977823061431316e-04 -2.1122456844931095e-02 -2.0451714725978724e-03 9.3791037101309885e-03 4.6290108200191388e-04 -7.8028091169663472e-02 -8.1541266137160062e-03 1.7321523574846953e-03 -4.4004148658256526e-03 2.6558972740294617e-02 4.5535422422599336e-02 -2.1592810231209680e-02 5.1825345839398573e-03 6.3563797788091347e-02 9.8129166811260077e-02 -3.3729335126703168e-02 -2.0690382641353727e-02 2.6205718520501790e-03 -4.1326832790092083e-02 3.3664526141431755e-02 5.7210588067022769e-02 1.0097982217900231e-02 -1.9306245602454471e-02 1.9291797460015070e-01 -4.3994202467547469e-02 4.3965766322374301e-03 2.7277431717079494e-02 7.5504710642138928e-02 2.0291567883270190e-03 8.9993812439310122e-02 -2.5752059590821740e-02 2.9318626989045715e-01 -1.0230261975279853e+00 -9.8769994616437443e-02 -6.2940875336347846e-02 4.3883174152068993e-03 1.1127726719089737e-02 -1.1101510432907372e-01 -1.0108206763422045e-01 -3.1091222325261760e-02 1.0458265617869793e+00 
      </Row>
      <Row Index="28">
        9.4956257294951196e-01 1.3715146672955174e+00 -2.3965043293113833e-01 7.4484525916801353e-02 2.6853213716453417e-01 1.2640002413361415e+00 -4.8183203646238926e-01 1.0161726102228452e-01 3.1856556535002933e-01 -2.4791110759643104e-01 -3.1789046684387041e+00 1.2483819445503919e-02 -1.4508039128293439e-02 -7.7433818147972677e-02 -4.2231458148005263e-01 -2.3922746879805801e-01 2.8046254901758411e-01 -4.4893070843345867e-01 1.2594142552915094e-01 -1.9958404467373114e+00 -5.8626868848562719e-02 8.8541394523757866e-03 -8.8124322178630532e-02 -1.7167726828194159e+00 6.4585244027695088e-01 -6.0237296679826580e-01 4.8733546621966894e-01 9.8129166811360413e-02 3.4871546328283411e+00 3.8419831662008533e-02 -1.3332652018916636e-02 -5.4943592218705761e-02 1.1922169529069584e+00 5.6477841690295694e-01 6.3672985703385143e-01 2.2170859309153124e-01 5.2800184198543332e-01 2.7767245113740574e-01 -2.0418844060301544e-01 8.4328324711051783e-02 1.1375165621689082e-01 6.9754044638866919e-01 -4.0939707858916541e-01 1.1833206414814827e+00 2.7485231893652970e-02 -3.5698690336795869e+00 -1.8308144408543786e+01 1.5402668290351418e-01 -3.6992219318648445e-01 3.2885320620610337e-03 4.6542629781676652e+00 -2.0255677902818912e+00 -2.5288605489882143e+00 7.6159922834326865e-01 8.0921281374900129e+00 
      </Row>
      <Row Index="29">
        4.8901723550225246e-01 4.0309966871455172e-01 -8.5798539712804833e-01 -5.3435333364068249e-01 -8.0818037909843032e-01 -1.7889182286556771e-01 6.1216697132688314e-01 -3.8859813068370846e-01 6.7084457952092036e-01 -1.5891811622060431e-01 4.9029365884663634e-01 -7.5833356789317552e-01 4.2518859388469138e-01 -1.0833235282210096e-01 -4.2353807411286415e-02 -1.6508734575867406e-01 1.5382581832186018e-01 -1.7981048663881061e-02 4.6343230223854733e-02 -1.5834681435252094e+00 -9.8270035582922888e-01 -7.9982421579620294e-02 5.3681341669662175e-01 1.0819108973596507e+00 -2.0178955901709947e-01 6.0252671650481160e-01 1.9941448888243035e-01 -3.3729335125717741e-02 3.8419831679349897e-02 8.9597652106628995e+00 -1.0860230057584463e-01 4.2321721149728075e+00 -6.7000093292496876e-01 -2.0735076813411268e-01 -3.8376504515600618e-01 -2.2360428122303072e-02 1.9677510208847623e-01 1.8598896325869216e+00 6.4947152669162387e+00 -1.4643504802811369e-01 3.1733302390335965e+00 -2.5638690762378902e-01 3.1874649280246509e-01 -1.0125345286994121e+00 3.5681022209787983e-01 -1.4636462875466765e+00 5.1055233689233868e+00 -8.4602880940984857e+00 2.6505011061298349e+00 -9.2403478766702651e+00 -6.6407111812645567e+00 1.6229534047998744e+00 3.4554041738600332e+00 7.6205867646584546e-01 1.0965804751884118e+00 
      </Row>
      <Row Index="30">
        2.1187074851971838e-01 4.4419772185522155e-01 5.9405219892903434e-02 -5.6700705089399406e-01 -1.7487603832190790e-01 2.3414091301524964e-01 2.5829128004865753e-01 -2.4419473359508903e-01 9.1866254615137621e-01 -4.2863981431364363e-02 -1.8348438064820108e-01 9.3941641358341904e-02 4.3303940720348133e-01 8.6398253146889120e-02 -3.8028872566492222e-01 -6.8953242047411878e-02 2.2617817669648349e-01 -5.1992598973039106e-01 1.4520437358777755e-02 -3.3300429226275330e-01 -9.6692315525937600e-02 3.5760024341000618e-02 5.3151312987182786e-02 -4.1550928754698369e-01 -2.6876137946482376e-01 4.7497519514742820e-01 2.4160149581600465e-01 -2.0690382641486871e-02 -1.3332652022661873e-02 -1.0860230057558909e-01 1.2170464545844162e+00 2.0846435781491493e-01 3.2259096716400959e-01 3.0803466122882844e-02 -1.0415867216722101e+00 -2.8762524464623351e-03 9.8780174426109174e-02 3.7490339591432909e-01 3.2648535801767631e-02 7.4605536236222503e-01 1.0500662013527844e-01 1.0269508462675669e-01 2.8785249199346624e-01 -1.2175680643836828e+00 5.4662406026734434e-01 -8.6717047133089542e-01 4.1277218700204732e-01 6.2871604691856242e-01 2.4843490610825039e+00 2.1976865111174126e-01 6.9904070828917231e-01 8.8222537314703553e-01 2.1728604789957648e+00 9.4610753925496605e-01 -1.5546297414948118e+00 
      </Row>
      <Row Index="31">
        -6.8252397161254696e-01 2.9860687059983015e-01 -6.7348309181390076e-01 -1.3539987013752558e-02 -8.1828409888641129e-01 -3.8308951423984183e-01 1.4703851339267182e-01 2.3448366623892525e-01 6.8934627933999693e-01 -1.9688054521013756e-01 1.3169022742493592e+00 -8.1713374494834290e-01 -1.6253194601150397e-01 -1.6726683526640085e-02 4.2224359237775522e-01 -3.2827886830747810e-01 7.2098954052355169e-02 3.9358736490932822e-01 2.0316907483409979e-01 -1.1728353994155345e+00 -1.9830573358493497e+00 -3.7976589384616899e-02 1.7872542992421385e+00 2.2069017903582484e+00 9.2522558675479122e-02 -1.1024766014033638e-01 -1.1333431323540699e-01 2.6205718531624456e-03 -5.4943592193206547e-02 4.2321721149800648e+00 2.0846435780977204e-01 1.1712957047592781e+01 -1.7418177852845829e+00 4.7078448526989947e-02 -4.7393976835186091e-01 -6.3603791697240730e-02 -8.0045401332222788e-01 1.9707957543989441e+00 2.6379593567021788e+00 1.4923666490405663e-01 9.7668393445614363e+00 -3.4546901277269271e-01 -1.7712151225979089e-01 -1.4173441885053284e-01 7.4080696531026979e-01 2.9919688658370984e+00 6.2521207956003364e+00 -1.4780855563276367e+01 -7.8510341885669366e-01 -1.2770216328489338e+01 -1.1690812626651134e+01 -2.7737937786927569e-01 -2.4940176038953776e-01 -1.0393053179167722e+00 6.1261255501826435e+00 
      </Row>
      <Row Index="32">
        6.2170040985664776e-01 -1.4569954725711548e-01 1.3641783405480848e-01 -2.6279933700352986e-01 1.9396879029811842e-01 6.5156894946806609e-01 -3.3938477272377510e-01 -1.8456207104209965e-01 1.1797334096354650e+00 -9.8767419970845982e-02 -2.7189173449741393e+00 5.8031488991343450e-01 2.5543942494038144e-02 2.7497778155011754e-03 -1.9007873824875698e+00 -6.3040364061086041e-02 1.7743413248866630e-01 -5.1035283714439794e-01 3.0620161741046148e-02 7.5121416262022400e-02 1.1737753689857833e-01 2.2289206315630095e-01 -7.8853639790476437e-02 -7.2213996614343996e+00 -3.4835683505279880e-03 -2.5832011920839726e-01 4.5180004764325443e-01 -4.1326832790657075e-02 1.1922169529000650e+00 -6.7000093293334917e-01 3.2259096716938895e-01 -1.7418177853051651e+00 5.5727769657845592e+00 7.5196363959889356e-01 2.6821102895571630e-01 -1.3413463599781961e-01 4.1142224818045176e-01 -2.2576719702623400e+00 9.9238552422886706e-03 -1.2070844894953547e-01 -1.4004848267723762e+00 4.8288221994381431e-02 3.2541164333342731e-01 3.6516813022116135e-01 5.3445866641276951e-01 -1.5473754111181550e+00 -1.2911305162851773e+01 5.1590810336225736e+00 8.3837281318913304e-01 2.7990649932746101e+00 1.7077756505973291e+01 -8.2569503174725267e-01 -9.4796844880203901e-01 9.6946287048974755e-01 -4.0493463860736743e+00 
      </Row>
      <Row Index="33">
        1.1362024820584593e-01 5.0748251943824285e-01 -5.2492040928525982e-02 4.2147076565304344e-02 6.0355022351151075e-02 3.0959283589747499e-01 -4.3107378442013544e-01 1.2508074154068163e-01 7.7021233902811875e-03 -6.5954589031217981e-02 -7.1543564673491933e-01 9.3078974657973740e-02 -9.0972177963271533e-02 -2.1222035976122121e-02 -3.2332969714388754e-01 -1.0527219732983582e-01 8.7479458419070816e-02 1.3096069830763382e-01 2.6565821107746392e-02 -4.8505956324558142e-01 8.6235800142255070e-02 2.9298092193406317e-02 1.8839153788918928e-02 -9.2839958654972965e-01 3.4737801076107605e-01 -2.6512214961748171e-01 4.0525445923314363e-02 3.3664526141378548e-02 5.6477841690268160e-01 -2.0735076813564657e-01 3.0803466123745536e-02 4.7078448521692094e-02 7.5196363960086110e-01 5.4612068721226614e-01 1.7090540600762466e-01 -8.6770363657491661e-03 4.3156028376980647e-02 1.2065019853205003e-01 -1.3884585119776996e-01 -4.3603478604669899e-03 6.6243511740219876e-02 1.3875454249444397e-01 -1.4054452662159334e-01 4.8284572942124704e-01 4.4376207062914272e-02 -4.4806688743411804e-01 -3.2212099632327345e+00 5.6105727390249505e-01 -3.9599243340718082e-01 1.8100112207001812e-01 2.0588872113257182e+00 -9.7930356986173994e-01 -9.8228973527331154e-01 -2.1549587251987729e-01 6.8266070014724756e-01 
      </Row>
      <Row Index="34">
        -1.5666717388461510e-01 -4.2466814555227306e-01 -1.3800743605608876e-01 5.3627014468294421e-01 2.6383264584623767e-01 -7.5200116500679481e-02 -4.5413527237400031e-01 7.1747043198936045e-02 -5.6641113475461080e-01 -2.2892097226911989e-02 -4.8015649521056403e-01 2.5356009879685393e-03 -2.4027793565884270e-01 -7.3409402636424786e-02 2.1427069014876410e-01 7.5188952225067607e-03 -1.5075578572938128e-01 6.0353787809418469e-02 3.1863553519233950e-03 3.7058081072382620e-01 9.8536838400083759e-02 -3.7514035820633396e-02 -7.9339378474530875e-02 -4.4134269109008528e-01 5.7317299408431888e-01 -8.1093329812037795e-01 4.5054288080162097e-02 5.7210588067076240e-02 6.3672985703637375e-01 -3.8376504516047855e-01 -1.0415867216709489e+00 -4.7393976836281704e-01 2.6821102896254767e-01 1.7090540600837922e-01 1.8700211296759495e+00 7.9636874518116629e-02 -9.5766928590221373e-02 -1.0587129399989719e+00 -4.6263349051061486e-01 -5.3845852910578906e-01 -2.6930123684705887e-01 -7.9737885470916092e-02 -4.3896339833193826e-01 2.0263960076341516e+00 -4.9143193573795957e-01 5.7895016002210564e-01 -5.7277632896712438e+00 -1.3918213635753074e-02 -2.2286832729221890e+00 4.2705004742269548e-01 2.1760638747803944e+00 -1.6682503590496971e+00 -3.2348383081922054e+00 -4.6068978724709497e-01 3.2088199402844171e+00 
      </Row>
      <Row Index="35">
        -1.7629944259780067e-03 -1.0721253106680048e-01 -1.8401913899477769e-02 -3.4782001778185662e-02 2.5859103196995414e-03 -4.7828931141304931e-02 4.1532480379208703e-02 -7.2981544514173477e-02 9.0831604140086217e-02 -3.7578170604410225e-03 4.1658048466073905e-03 -1.5920305745095523e-02 2.0492149641998436e-01 -6.1103913651565922e-03 4.5272816400110938e-02 1.1585319010025519e-02 2.5922717871792317e-03 -3.2503781776547008e-01 -9.9111161100195744e-03 -1.4214342053395479e-01 1.2737799669416461e-02 -2.1332477015046480e-02 -5.0869349543407605e-03 1.2374749266564233e-01 -8.1849208293685929e-04 4.0205324272664267e-02 6.2484220152056236e-02 1.0097982217882273e-02 2.2170859309092508e-01 -2.2360428123940734e-02 -2.8762524461872635e-03 -6.3603791697542267e-02 -1.3413463599811504e-01 -8.6770363658191067e-03 7.9636874517736461e-02 2.5246014125811533e-01 9.2444272351062447e-03 5.1437990867542888e-02 -5.5673109887978522e-02 1.3205313923561451e-01 -5.1481479469868280e-02 -9.1425894432210941e-02 4.5359482067128913e-02 -1.5343679145009913e-02 5.6133856748671537e-02 -3.1560588972771475e-02 -1.2729004983423438e+00 8.1631946173796113e-02 3.4075872242427119e-01 1.2979946446219548e-01 -3.8187205871594676e-01 1.1654206732375971e-01 1.6167410318893150e-01 3.7328841643523292e-01 1.4513747616683461e+00 
      </Row>
      <Row Index="36">
        2.0945259409672774e+00 1.1388064078936277e+00 -1.1649495594272073e-01 -1.1112830564448067e-01 1.4608644068678361e-01 5.7716665431096592e-01 2.2459435025269914e-01 -9.5063699627778109e-02 1.3009812696804468e-01 -2.3073162444104300e-01 -5.8030427980658505e-01 1.3073990021765888e-01 8.6374697408516915e-02 -7.9997050788268104e-02 -1.6844960199183612e-01 -8.4763129017063787e-02 1.6142460135984027e-02 -2.4247640271694015e-01 -8.0894886141968103e-03 -1.6406559494672868e-01 2.4616020421484097e-01 -1.4191682817191076e-02 -1.7384796797681790e-01 -4.0156343571507236e-01 -2.1771826524921134e-01 -1.4754626460430020e-02 1.6036633723936466e-01 -1.9306245602033090e-02 5.2800184198483691e-01 1.9677510208299609e-01 9.8780174426672501e-02 -8.0045401333140032e-01 4.1142224817739992e-01 4.3156028376632016e-02 -9.5766928590237554e-02 9.2444272357129487e-03 1.4702181045390503e+00 6.4785456556923693e-01 1.4667550168969989e-01 5.7581928984794750e-02 -6.2085030841739730e-01 3.2704882231721433e-01 2.4925246622518218e-01 -1.2393505710194264e-01 -3.5445784206866171e-02 -6.6446935859100789e+00 -3.7601175424640898e+00 1.8527284655966025e+00 4.4209302014910801e-01 9.2875179255203411e-01 1.7357576673635773e+00 4.5816135827283255e-01 1.5076169341539236e-01 6.7008631601885371e-01 -3.2734392414205926e+00 
      </Row>
      <Row Index="37">
        9.2535991370621862e-01 4.6877854520434630e+00 -1.6345978035758765e-01 5.4137436638404257e-03 -1.8911719223271561e-02 2.0558800388904297e+00 4.9457967265521940e-01 1.4473658247450111e-01 -9.9252495788486783e-01 -1.9316746390275522e-01 2.5579036210202188e-02 -5.4470792672735480e-01 5.8609387722003525e-02 -9.4681895870390109e-02 2.8200618899456320e-01 -1.1979915022712695e-01 2.7560934298857948e-02 6.6614763822251399e-01 1.4793538866499745e-01 -1.7541889240890738e+00 -4.6039930974920118e-01 -1.3822833806769164e-01 1.9146766820854433e-01 2.9013653856342305e+00 -5.8139170989275547e-02 3.7088224435190287e-01 -2.3234590822924983e-01 1.9291797460088855e-01 2.7767245114139977e-01 1.8598896325866390e+00 3.7490339591220251e-01 1.9707957544036199e+00 -2.2576719702645405e+00 1.2065019853298742e-01 -1.0587129399953379e+00 5.1437990868074102e-02 6.4785456556511611e-01 5.5946528131740827e+00 1.0322293307288728e+00 4.9295847461779085e-01 1.7006582103378425e+00 1.6915959931414730e+00 3.5810236047634819e-01 -9.9975229662995457e-01 -3.8734023792189376e-01 -3.6154835196564026e+00 1.6522939622421056e+00 -4.2102901734757943e+00 6.1559843089504618e-01 -3.1276854419522184e+00 -9.3674815487576151e+00 3.6534854605447470e-01 1.7773250605014388e+00 -7.8045742320705225e-01 3.4737262477369000e+00 
      </Row>
      <Row Index="38">
        3.2995846171825011e-01 1.1216156030484586e-01 -2.4300213147926808e-01 -4.7696824064754767e-01 -6.7431514067203890e-01 -2.6790323606906563e-01 5.6531689453684031e-01 -1.8502054035056870e-01 6.8318924827082173e-01 -4.6823437987054101e-02 3.1919695452530084e-01 -2.5010993942907522e-01 2.7684240097629714e-01 -8.9908275673869331e-02 -3.1320937111950808e-01 -9.7608929871396688e-02 1.6648367439026451e-01 -9.7827004393833628e-02 5.9203256348753494e-02 -1.1145062122030949e+00 -4.7669508343164524e-01 1.7060440863672754e-02 3.1589349837464870e-01 2.5692267728877272e-01 -2.7747410184169613e-01 4.4859401520456177e-01 1.8402128454826883e-01 -4.3994202466941940e-02 -2.0418844059152844e-01 6.4947152669160575e+00 3.2648535802208098e-02 2.6379593566945445e+00 9.9238552480667153e-03 -1.3884585119705828e-01 -4.6263349050810254e-01 -5.5673109886770711e-02 1.4667550169435728e-01 1.0322293307293959e+00 5.3290262022482269e+00 -1.6668346553845684e-01 1.8195747878671045e+00 -3.2534889579232978e-01 4.1419951425240686e-01 -7.6611281601023462e-01 3.5650660443501980e-01 -8.9383049542305737e-01 5.1580785570557834e+00 -5.1502051598244467e+00 2.2296404212418262e+00 -6.2620229903944571e+00 -3.4206353795356543e+00 1.6074154114920201e+00 2.8543523500406653e+00 8.1860196722743883e-01 -1.2719416504819563e+00 
      </Row>
      <Row Index="39">
        1.4188617212714683e-01 4.4237166628226399e-01 -3.1962360779027948e-02 -1.1281254650456936e-01 -4.2608801417477610e-02 2.5763750582359396e-01 1.6876983887641514e-01 -1.7092753779654127e-01 3.4821890276241896e-01 -4.3716592388344723e-02 1.0095937887838273e-02 -6.7164056324214936e-03 4.2241552586965486e-01 8.5344471893965771e-03 -8.4330125290054014e-02 -2.8735548249949783e-02 6.5098224434598201e-02 -4.4963640926493531e-01 8.0751083906681394e-03 -2.1508965218587603e-01 -3.7096004563944393e-02 -6.6502681122965826e-02 4.2772109612898256e-03 1.3959664678016032e-01 -2.1489937194716013e-01 2.5389889998799148e-01 1.6658038286088470e-01 4.3965766321555078e-03 8.4328324707862209e-02 -1.4643504802839930e-01 7.4605536236205372e-01 1.4923666490947909e-01 -1.2070844895354287e-01 -4.3603478609950952e-03 -5.3845852910652758e-01 1.3205313923544118e-01 5.7581928982927744e-02 4.9295847461820941e-01 -1.6668346553916868e-01 8.2647828210226737e-01 1.1021387855987391e-01 1.5683390717135137e-01 1.8677395603585689e-01 -6.8590997194319558e-01 1.3494390702425291e-01 -6.6585939894080204e-01 -2.7105524895618727e-01 1.7897765073626665e-01 1.4055011556578665e+00 1.4116627018269792e-01 -4.7882427876147649e-01 5.8586203025665273e-01 1.0956597893348856e+00 7.0101968944065884e-01 5.2302610176243013e-02 
      </Row>
      <Row Index="40">
        -5.1369062052690895e-01 4.6027140305074254e-01 -6.0179545247837896e-01 1.1871975815107216e-01 -5.0628374107683971e-01 -1.7719063710471783e-01 1.4806077422796943e-01 2.7588678043940934e-01 4.1419175416135312e-01 -1.9156723907609965e-01 9.3293382739379371e-01 -7.2782145324063252e-01 -2.5691287783042871e-01 6.0654153047187020e-02 3.9982995018122303e-01 -2.4689857584932418e-01 -9.1361434649495088e-04 3.9134357636026351e-01 1.7530951025625038e-01 -9.1593040089039102e-01 -1.6401506012421803e+00 -4.9192304063111925e-02 1.5414650725182928e+00 1.7514143158060929e+00 7.3875116135642710e-02 -2.9093313250995956e-01 -7.4213408013581894e-02 2.7277431718017997e-02 1.1375165623807193e-01 3.1733302390386626e+00 1.0500662013101568e-01 9.7668393445598003e+00 -1.4004848267542691e+00 6.6243511744806804e-02 -2.6930123683782581e-01 -5.1481479469632108e-02 -6.2085030840987232e-01 1.7006582103334835e+00 1.8195747878729083e+00 1.1021387855541961e-01 8.3584694865385671e+00 -1.8546918579590521e-01 -8.9220038627612575e-02 1.4901291928225024e-01 5.0964232746498794e-01 2.3166647028881329e+00 3.5667183259277460e+00 -1.1891571913058112e+01 -1.2971924967140112e+00 -1.0320387387742683e+01 -9.1309127888770973e+00 -4.2732127686349841e-01 -9.8554935684722178e-01 -1.0434422130622822e+00 5.8919913445572885e+00 
      </Row>
      <Row Index="41">
        4.8096083830673375e-01 2.2781953569146638e+00 -1.4760259729163602e-02 1.6272882005636438e-01 1.6056601899328929e-01 1.5690645264126151e+00 -1.4133189686683745e-01 1.6370774530361448e-01 -6.1673044014173539e-01 -7.0172883912516457e-02 -1.0439637693949244e+00 -5.7729848526949096e-02 -1.3211519275322864e-01 -2.3746436064836340e-02 -9.4948155028186265e-02 4.0008407779564548e-03 4.3706839828282565e-02 3.4870644202149403e-01 8.4258137387655530e-02 -4.4113690325594157e-01 -1.3176889695905869e-01 -1.8059342266203982e-02 -7.5889897153587960e-02 -2.3377830044667514e-01 1.6777337476184781e-01 -1.1264192081233604e-01 -1.9442518279675136e-02 7.5504710642273376e-02 6.9754044638739576e-01 -2.5638690762824895e-01 1.0269508462724782e-01 -3.4546901277775677e-01 4.8288221993304292e-02 1.3875454249434310e-01 -7.9737885471188180e-02 -9.1425894431900856e-02 3.2704882231494353e-01 1.6915959931408380e+00 -3.2534889579562998e-01 1.5683390717236384e-01 -1.8546918580022570e-01 1.2869174072647871e+00 -1.2665430053644963e-01 1.7161274254584602e-01 -4.1400562520478335e-01 -2.0142225384835872e+00 -4.9156271058088095e+00 -7.2858110169469636e-02 -3.1921899339623150e-01 4.1311654074391502e-01 1.0052843999532370e+00 -7.1053004292196231e-01 -4.9124988956285975e-01 -5.3263478022874211e-01 1.1764501671822147e+00 
      </Row>
      <Row Index="42">
        3.0713947774748396e-01 1.9654006236529134e-01 1.2983250642465757e-01 -2.4432952319754711e-01 2.5823331494412849e-02 -1.1846790336785284e-01 7.8606286951215709e-01 -2.5453565452997107e-01 3.5532084737599012e-01 -2.3354550449762715e-02 2.5591899278040164e-01 2.5503868381096015e-02 2.5118415334664229e-01 3.2795379376481970e-02 -1.9947359933024156e-01 3.5425290762074735e-02 -3.0671207902405240e-02 -3.5244610889045480e-01 1.2277839492899151e-02 4.5061636101837665e-02 1.6979678021492917e-02 -2.8582359690121795e-02 -2.0524622511576718e-02 -3.3894835268681733e-01 -6.0141711146677945e-01 2.7160249371918893e-01 1.5620438625683175e-01 2.0291567883111150e-03 -4.0939707859118224e-01 3.1874649280389911e-01 2.8785249199367136e-01 -1.7712151225618389e-01 3.2541164332972961e-01 -1.4054452662217470e-01 -4.3896339833278991e-01 4.5359482067099360e-02 2.4925246622482522e-01 3.5810236047897492e-01 4.1419951425292589e-01 1.8677395603631824e-01 -8.9220038624706635e-02 -1.2665430053626603e-01 8.1508094808030152e-01 -7.4643079787739164e-01 1.3713045833571891e-01 -7.8234571486724280e-01 1.5776067284259943e+00 9.2758472101058420e-01 1.1022613161899335e+00 2.7225557412766999e-01 7.9851982991505832e-01 1.2501295981392997e+00 1.3280493498382266e+00 6.0945524330739387e-01 -2.1144178081658955e+00 
      </Row>
      <Row Index="43">
        -1.2511828979890699e-01 -3.5835463864186679e-02 6.1647078709891723e-02 9.6266765205704574e-01 4.6978537824114686e-01 2.9271831733651243e-01 -8.7683965510436646e-01 1.0229821407226147e+00 -9.2797507188223050e-01 -6.0921572627155793e-02 -9.9050995644439344e-01 4.5059094225072815e-02 -8.9112573124365990e-01 -1.1074099737724191e-01 3.1565808973315090e-01 -2.1100347995360647e-02 -2.3389996057437556e-01 5.2825463933378480e-01 6.4792252778860221e-02 2.5528158961873615e-01 2.8712521285687709e-01 -6.7737988865734122e-02 -5.5311059955356345e-02 -5.6058497409529728e-01 7.9128049759497121e-01 -1.7048976832978646e+00 -1.7556185801145041e-02 8.9993812439518872e-02 1.1833206414871711e+00 -1.0125345287070462e+00 -1.2175680643822080e+00 -1.4173441887105276e-01 3.6516813023515038e-01 4.8284572942298931e-01 2.0263960076355714e+00 -1.5343679144429356e-02 -1.2393505710063346e-01 -9.9975229663653176e-01 -7.6611281601426007e-01 -6.8590997194217418e-01 1.4901291926523308e-01 1.7161274254708303e-01 -7.4643079787587685e-01 3.5137447269768085e+00 -6.1809128072523412e-01 5.7661319506944686e-01 -9.0936328205684944e+00 -1.2176191193393243e-01 -4.8991640594960533e+00 2.0577479338961835e-01 2.8702342774900060e+00 -2.7361537296324361e+00 -6.2891858944148069e+00 -1.2390640990979773e+00 5.4395621400789125e+00 
      </Row>
      <Row Index="44">
        4.1022718721172600e-02 -5.8157875114303981e-01 4.6800328580949898e-03 -5.2296726090347878e-01 -2.1484952525346879e-01 -3.1733448829149341e-01 1.1180561948293795e-01 -1.3998372808175796e-01 1.4783691788525670e+00 -7.0342135673708256e-02 -8.3886583578208843e-02 7.3558475863000645e-03 2.8888465351956560e-01 4.8477343476409279e-02 -2.9744490095426751e-01 -1.2700290309890627e-01 1.7553436599109359e-01 -4.2753936312611851e-01 -7.0056011196462263e-03 -2.6082894033871618e-01 -3.6117204377027479e-02 7.7293573770971832e-02 1.3437322439970664e-01 -6.8921818662108469e-01 -1.6058986248650584e-01 3.1638133067438973e-01 4.0708109620216731e-02 -2.5752059590887662e-02 2.7485231893758792e-02 3.5681022209776220e-01 5.4662406026772670e-01 7.4080696530985768e-01 5.3445866641303919e-01 4.4376207062712031e-02 -4.9143193573868194e-01 5.6133856748488080e-02 -3.5445784204917258e-02 -3.8734023792083444e-01 3.5650660443505622e-01 1.3494390702423786e-01 5.0964232746478311e-01 -4.1400562520420081e-01 1.3713045833619503e-01 -6.1809128072580843e-01 1.1148835939282944e+00 1.9892763155670584e-01 -2.1830447679009590e-01 8.4121023170231665e-02 1.6618126519958096e+00 -5.5225110850359638e-01 1.0075602361031590e+00 7.6061751761379826e-01 1.4666075802016854e+00 7.9947201729030548e-01 -1.3058118954570452e-01 
      </Row>
      <Row Index="45">
        -1.0552992977325449e+01 -6.0102625382497576e+00 5.9861527930476621e-01 5.1302474767428263e-01 -5.7750206827309958e-01 -3.4280953215445322e+00 -7.9536519150354601e-01 5.3310116862320966e-01 -6.1188676112273344e-01 1.1022024227133449e+00 3.9191247659074047e+00 -3.9708866434058177e-01 -4.9804914176237702e-01 3.9041068332033690e-01 8.8208656270192431e-01 5.6888389479419965e-01 -3.5147322055191677e-01 1.1611359952289124e+00 -1.9973656521533356e-01 1.9250656650765432e+00 -8.1724819030077001e-01 1.7817351406317350e-02 7.7433899485395852e-01 1.5997832079021492e+00 5.4128158481676136e-01 1.2164910939792861e-01 -8.2430064583018403e-01 2.9318626988838714e-01 -3.5698690336765506e+00 -1.4636462875218883e+00 -8.6717047133352754e-01 2.9919688658768204e+00 -1.5473754111002300e+00 -4.4806688743213208e-01 5.7895016002267230e-01 -3.1560588975799941e-02 -6.6446935859101561e+00 -3.6154835196781385e+00 -8.9383049540151216e-01 -6.6585939895008472e-01 2.3166647029206264e+00 -2.0142225384943711e+00 -7.8234571486864690e-01 5.7661319507573872e-01 1.9892763156611259e-01 3.8693191844839149e+01 2.1076823239113306e+01 -7.1138930902931854e+00 -2.9338041753428605e+00 -3.5547061520670855e+00 -7.6693656625059390e+00 -1.2921199405308474e+00 -7.3084551470571313e-01 -3.3971633970322266e+00 2.0411307718954887e+01 
      </Row>
      <Row Index="46">
        -5.9715740962332742e+00 -7.3568227646371342e+00 2.3983570804809995e-01 -9.4044745499586080e-01 -2.4751353445235518e+00 -9.0931275993378762e+00 2.4790863833867705e+00 -1.0686628863720422e+00 -1.5605690060777251e+00 1.6161205963849086e+00 2.0714083006688167e+01 1.6225578928748430e-02 4.7881294420608012e-01 1.2110420640655040e-01 1.8383398646647251e+00 9.1663052904316800e-01 -7.3193948343478921e-01 2.2042054568036455e+00 -7.0664511437559563e-01 5.3189403648058295e+00 -8.5263527849565435e-01 -3.4311032798926888e-02 1.2471681255489671e+00 2.0025887012739837e+01 -2.9947680257932765e+00 4.4331528642351099e+00 -2.5536776661420220e+00 -1.0230261975278729e+00 -1.8308144408532172e+01 5.1055233690543069e+00 4.1277218697054152e-01 6.2521207957901863e+00 -1.2911305162894109e+01 -3.2212099632326376e+00 -5.7277632896457833e+00 -1.2729004983468046e+00 -3.7601175424675821e+00 1.6522939622651380e+00 5.1580785571446661e+00 -2.7105524898311373e-01 3.5667183260868782e+00 -4.9156271058182064e+00 1.5776067284089101e+00 -9.0936328205110488e+00 -2.1830447678834108e-01 2.1076823239137546e+01 1.4639032372520717e+02 -1.3199795020520357e+01 5.3596948385306504e+00 -9.6689385781162258e+00 -6.2303304270511944e+01 1.1946879466879041e+01 1.9296519954565568e+01 -3.4597648943643868e+00 -5.4925899167220784e+01 
      </Row>
      <Row Index="47">
        1.9991366896987257e+00 -1.0201894948576071e+00 1.1971928103447815e+00 -2.0444496823552272e-01 1.3321904515541112e+00 4.7614422457080963e-01 -2.8009206766754335e-01 -3.1452033259202117e-01 6.4440275201059705e-01 1.1648918473719598e-01 -2.5171811773503405e+00 1.8344538863450790e+00 3.4712343275143576e-01 1.5491655283838379e-01 -1.0733471861485815e+00 5.1552249679354034e-01 -1.2355894308155602e-01 -1.3336899898676613e+00 -4.1577002000701319e-01 2.2292293531980674e+00 4.0010623126197320e+00 3.8333429003464614e-01 -2.0611970521635250e+00 -5.8520871798708036e+00 -4.6057607192786676e-01 -1.4580558755947015e-01 2.3340414833309620e-01 -9.8769994618343127e-02 1.5402668286394827e-01 -8.4602880941100835e+00 6.2871604692658734e-01 -1.4780855563287973e+01 5.1590810335958315e+00 5.6105727389482318e-01 -1.3918213652926559e-02 8.1631946172693093e-02 1.8527284655894782e+00 -4.2102901734665776e+00 -5.1502051598352319e+00 1.7897765074395977e-01 -1.1891571913070425e+01 -7.2858110174697011e-02 9.2758472101758471e-01 -1.2176191196657005e-01 8.4121023168167275e-02 -7.1138930902650817e+00 -1.3199795020232067e+01 2.9812616723840904e+01 1.7650553636471482e+00 2.1564607648772096e+01 2.6446360669038647e+01 1.3792791296454507e+00 2.0199350182486597e-01 2.5900467150610655e+00 -1.1917768851247217e+01 
      </Row>
      <Row Index="48">
        6.2386284477132226e-01 2.6511962170457526e-01 -2.6779428427154545e-01 -2.1805192816333272e+00 -9.8230371679141348e-01 -1.8923192550815493e-01 1.3692292236480819e+00 -2.2152749769669522e+00 3.1606229428333927e+00 -2.0982329648113050e-02 2.9320837800216992e-02 2.4094157130355265e-01 2.4151391381049780e+00 2.5577157172219556e-01 -1.3480904947387362e+00 -3.0376554178916593e-01 1.0747960010698099e+00 -2.6134204159022074e+00 -1.1884134319166181e-01 -1.1687191052504979e+00 -5.1464046827662058e-01 4.0692352991697200e-01 -1.7537788894518069e-02 -1.0094932424687659e+00 -8.3616891657504255e-01 2.8776282745899242e+00 6.5110736641962763e-01 -6.2940875336851665e-02 -3.6992219319935216e-01 2.6505011061311827e+00 2.4843490610836336e+00 -7.8510341883797363e-01 8.3837281316635526e-01 -3.9599243341122303e-01 -2.2286832729284174e+00 3.4075872242378058e-01 4.4209302014611090e-01 6.1559843090403099e-01 2.2296404212403012e+00 1.4055011556590020e+00 -1.2971924966987729e+00 -3.1921899339840820e-01 1.1022613161892068e+00 -4.8991640595038399e+00 1.6618126519953227e+00 -2.9338041753297306e+00 5.3596948386441703e+00 1.7650553636147681e+00 1.2531897906583474e+01 7.5218175289608125e-01 7.0766554534697335e-01 4.6677679640133398e+00 1.2334323426422841e+01 4.8839364311121756e+00 -7.5653137621143092e+00 
      </Row>
      <Row Index="49">
        7.4895240743094516e-01 -5.2206866375422178e-01 1.2612804810021851e+00 8.5434026552108966e-02 1.1660536463407256e+00 4.7742996245364111e-01 -3.2344479902294876e-01 -2.5034272608397390e-01 -3.8786669238401406e-01 2.7875749882531692e-01 -1.9058239673368043e+00 1.2112125722877287e+00 2.0354814154744011e-01 9.2786586297765483e-02 -7.4568674894605880e-01 3.6351698685308320e-01 -8.1909522461510231e-02 -9.2567391842745117e-01 -2.4702352350298146e-01 1.8714350233370913e+00 2.3105629114952668e+00 1.9423022148131164e-01 -1.7267789959881070e+00 -3.6216208359494804e+00 -1.0576031579989958e-01 -1.9372228669874758e-02 8.1298499057441020e-02 4.3883174134429215e-03 3.2885320263931206e-03 -9.2403478766756635e+00 2.1976865111686844e-01 -1.2770216328485409e+01 2.7990649932485896e+00 1.8100112206373598e-01 4.2705004740893049e-01 1.2979946446078028e-01 9.2875179254226348e-01 -3.1276854419456148e+00 -6.2620229904007445e+00 1.4116627018768940e-01 -1.0320387387741658e+01 4.1311654073709825e-01 2.7225557413230012e-01 2.0577479336430260e-01 -5.5225110850462455e-01 -3.5547061520254206e+00 -9.6689385778475572e+00 2.1564607648753967e+01 7.5218175291623268e-01 1.9223263321084197e+01 1.8091613078256721e+01 1.4618390267839687e-01 -3.8080596577600723e-01 1.5718025735211847e+00 -9.3233970593267586e+00 
      </Row>
      <Row Index="50">
        2.4488493494899237e+00 -1.3983569615078002e+00 1.1009067574697826e+00 -3.7571401604051413e-01 1.3460743647586066e+00 2.7048613563753765e+00 -1.2083886551385552e+00 -3.5142604056968851e-01 3.0649473390554869e+00 -2.2020298477611222e-01 -1.0932792431152167e+01 2.0532756973250188e+00 -2.0600955445123689e-01 1.6942416534356991e-01 -4.5035678437950697e+00 1.6994131521568856e-01 2.9729132844574024e-01 -1.7857143499666122e+00 1.4877474117426526e-01 1.7991129863699502e+00 1.8453019934623582e+00 6.4677258691805362e-01 -1.4913881646289635e+00 -2.3175729248715999e+01 8.2431847298900254e-02 -1.6150021298009603e+00 1.6305041323530043e+00 1.1127726716661845e-02 4.6542629781335423e+00 -6.6407111813097757e+00 6.9904070831107545e-01 -1.1690812626736031e+01 1.7077756505970054e+01 2.0588872113179013e+00 2.1760638747520478e+00 -3.8187205871499108e-01 1.7357576673706361e+00 -9.3674815487517993e+00 -3.4206353795678019e+00 -4.7882427874414013e-01 -9.1309127889515906e+00 1.0052843999553729e+00 7.9851982992987169e-01 2.8702342774320000e+00 1.0075602361015930e+00 -7.6693656625531279e+00 -6.2303304270294767e+01 2.6446360669150557e+01 7.0766554543616955e-01 1.8091613078370660e+01 6.8351825600092994e+01 -3.4723118515535036e+00 -6.3065489058782838e+00 3.0113586245870190e+00 -8.2384603022385594e+00 
      </Row>
      <Row Index="51">
        4.9422550989076436e-01 -9.6716712184383458e-01 1.9850592426786326e-01 -7.5995102406774828e-01 -3.5587352779519699e-01 -9.9223539858560539e-01 1.6551171128519644e+00 -6.3504484569707254e-01 1.3710822860351695e+00 5.6050580737695845e-02 2.2003746090596019e+00 -7.6622518781023774e-03 8.7870363097249848e-01 7.6303434060069342e-02 1.1624912629660145e-01 4.2380015029005236e-02 4.6853801291723118e-02 -1.1916332238259242e+00 -1.4340532008964693e-01 8.1184396219172816e-01 1.7344366875384010e-01 4.3117415700557382e-02 -2.3815973571230664e-03 1.3203904869120677e+00 -1.4390005394249048e+00 1.3449785148324960e+00 5.9102019544374329e-02 -1.1101510432905126e-01 -2.0255677902855131e+00 1.6229534048063761e+00 8.8222537314539862e-01 -2.7737937785177880e-01 -8.2569503175901016e-01 -9.7930356986320710e-01 -1.6682503590498121e+00 1.1654206732347638e-01 4.5816135827229520e-01 3.6534854606133738e-01 1.6074154114949619e+00 5.8586203025603056e-01 -4.2732127684871291e-01 -7.1053004292204180e-01 1.2501295981381746e+00 -2.7361537296312828e+00 7.6061751761264340e-01 -1.2921199405276980e+00 1.1946879466914611e+01 1.3792791296163787e+00 4.6677679640054635e+00 1.4618390265621573e-01 -3.4723118516003222e+00 4.9656461570821726e+00 6.3498020432852051e+00 2.5104617071964008e+00 -6.9114533205385866e+00 
      </Row>
      <Row Index="52">
        2.1367619159091356e-02 -1.3225821054978071e-01 -1.3270025165134969e-01 -2.1600897695277776e+00 -1.2388425485768353e+00 -8.4498973523900389e-01 1.7960330350145663e+00 -2.1309469249368092e+00 2.3359637256601751e+00 1.6886284957375841e-01 2.1731387813453633e+00 -4.4793694424942077e-02 2.2590572261985260e+00 2.9568459921423462e-01 -7.3641149007527229e-01 -1.0917686117319469e-01 8.3841705466977567e-01 -1.7054236142638199e+00 -2.1275503387792727e-01 -5.1374039409374728e-01 -5.5048440311805091e-01 3.6613405434336732e-01 8.7840983694671415e-02 1.3948005562575769e+00 -1.2958317316088914e+00 3.5787917658177508e+00 -3.5267894403471001e-02 -1.0108206763459426e-01 -2.5288605489983453e+00 3.4554041738734691e+00 2.1728604789935058e+00 -2.4940176035219022e-01 -9.4796844882877718e-01 -9.8228973527700647e-01 -3.2348383081952150e+00 1.6167410318811948e-01 1.5076169341225737e-01 1.7773250605130568e+00 2.8543523500473444e+00 1.0956597893333406e+00 -9.8554935681622979e-01 -4.9124988956544691e-01 1.3280493498354371e+00 -6.2891858944154713e+00 1.4666075802010303e+00 -7.3084551469102088e-01 1.9296519954668231e+01 2.0199350176431680e-01 1.2334323426409751e+01 -3.8080596582224313e-01 -6.3065489059866113e+00 6.3498020432879985e+00 1.4918166331097783e+01 3.6365273772284556e+00 -1.1315442647428267e+01 
      </Row>
      <Row Index="53">
        9.2976230695060391e-01 -5.0630160292268822e-01 -3.1337499783120011e-02 -6.9672279754677757e-01 -7.4160901067629431e-02 -3.5517569877077881e-01 9.2445691592721657e-01 -7.0357112239359842e-01 2.1804261471832818e+00 -8.0764933420918061e-02 -3.3589126739852199e-01 2.9945954814253617e-01 9.7029479336801439e-01 -1.3805542235975210e-01 -5.7439929156774050e-01 -3.4362734480019819e-01 3.3958885189041799e-01 -2.4426093474997450e+00 -8.4798750804960604e-02 -4.5723753255332411e-01 1.2526039575623815e-01 1.6248819498861466e-01 -1.7709440434857515e-01 -1.0421205440773735e+00 -4.7725655844320142e-01 7.4989475000960804e-01 9.1760993289294590e-01 -3.1091222325471790e-02 7.6159922833603400e-01 7.6205867645924519e-01 9.4610753925727142e-01 -1.0393053179194927e+00 9.6946287048211754e-01 -2.1549587252186847e-01 -4.6068978725125737e-01 3.7328841643522570e-01 6.7008631601818591e-01 -7.8045742320368161e-01 8.1860196722171041e-01 7.0101968944292004e-01 -1.0434422130646748e+00 -5.3263478022897848e-01 6.0945524330867129e-01 -1.2390640991050514e+00 7.9947201728974726e-01 -3.3971633970293942e+00 -3.4597648943110344e+00 2.5900467150630964e+00 4.8839364311190341e+00 1.5718025735274943e+00 3.0113586245595414e+00 2.5104617072027806e+00 3.6365273772408360e+00 4.4206965950590957e+00 -1.8152742752512128e+00 
      </Row>
      <Row Index="54">
        -5.2920510614001008e+00 1.9708750455155650e+00 -7.0870479098799932e-01 1.4246881010931527e+00 6.0833962950694165e-01 2.4674980404715825e+00 -1.5131881367155362e+00 1.6442614035186205e+00 -1.2728559349375437e+00 -3.3000534676296100e-01 -4.5418228704710124e+00 -1.8677550786266082e+00 -5.9869378132716000e-01 4.4572936602562230e-02 3.4306381385515081e+00 -2.6595984638356995e-01 -2.0081213080155758e-01 3.3611179249236045e-01 1.6449479924886656e-01 -3.7234874932817377e+00 -1.5136618166398463e-01 -4.5055180114338000e-01 6.0174125463463923e-01 3.6078285344980827e+00 2.4903706963840770e+00 -2.4322195495773400e+00 1.7657534639903361e-01 1.0458265617872389e+00 8.0921281375115210e+00 1.0965804751316703e+00 -1.5546297414871837e+00 6.1261255501169787e+00 -4.0493463860185059e+00 6.8266070015513503e-01 3.2088199402860580e+00 1.4513747616690598e+00 -3.2734392414219311e+00 3.4737262476948656e+00 -1.2719416505154286e+00 5.2302610178138309e-02 5.8919913445044241e+00 1.1764501671806187e+00 -2.1144178081639908e+00 5.4395621400817227e+00 -1.3058118953840747e-01 2.0411307718965809e+01 -5.4925899167431346e+01 -1.1917768851107848e+01 -7.5653137620984126e+00 -9.3233970592180562e+00 -8.2384603020045226e+00 -6.9114533205481106e+00 -1.1315442647439653e+01 -1.8152742752286875e+00 7.3341136980830456e+01 
      </Row>
    </InverseHessian>
  </Weights>
</MethodSetup>
